<?xml version="1.0"?>
<opencv_storage>
<shapeML type_id="opencv-ml-ann-mlp">
  <layer_sizes type_id="opencv-matrix">
    <rows>1</rows>
    <cols>3</cols>
    <dt>i</dt>
    <data>
      1600 40 1</data></layer_sizes>
  <activation_function>SIGMOID_SYM</activation_function>
  <f_param1>5.9999999999999998e-01</f_param1>
  <f_param2>1.</f_param2>
  <min_val>-9.4999999999999996e-01</min_val>
  <max_val>9.4999999999999996e-01</max_val>
  <min_val1>-9.7999999999999998e-01</min_val1>
  <max_val1>9.7999999999999998e-01</max_val1>
  <training_params>
    <train_method>BACKPROP</train_method>
    <dw_scale>1.0000000000000001e-01</dw_scale>
    <moment_scale>1.0000000000000001e-01</moment_scale>
    <term_criteria><epsilon>9.9999999747524271e-07</epsilon>
      <iterations>4000</iterations></term_criteria></training_params>
  <input_scale>
    1. 0. 1. 0. 1. 0. 1. 0. 1. 0. 1. 0. 1. 0. 1. 0.
    2.0392156862745096e-02 -1.9999999999999998e-01 1. 0.
    2.0392156862745096e-02 -1.9999999999999998e-01
    1.2274636000901959e-02 -3.6115755925730764e-01
    1.2274636000901959e-02 -3.6115755925730764e-01
    1.0869056127933079e-02 -4.2640143271122083e-01
    1.4716771567578694e-02 -2.8867513459481287e-01
    9.9503536849654371e-03 -4.8795003647426666e-01
    1.4716771567578694e-02 -2.8867513459481287e-01
    9.3077035915910579e-03 -5.4772255750516607e-01
    8.0607077612135179e-03 -7.9056941504209499e-01
    8.4967320261437902e-03 -6.6666666666666663e-01
    8.8411212578929886e-03 -6.0697697866688405e-01
    8.4967320261437902e-03 -6.6666666666666663e-01
    8.8411212578929886e-03 -6.0697697866688405e-01
    9.9503536849654371e-03 -4.8795003647426666e-01
    1.2274636000901959e-02 -3.6115755925730764e-01
    2.0392156862745096e-02 -1.9999999999999998e-01
    1.2274636000901959e-02 -3.6115755925730764e-01
    2.0392156862745096e-02 -1.9999999999999998e-01
    2.0392156862745096e-02 -1.9999999999999998e-01 1. 0.
    1.4716771567578694e-02 -2.8867513459481287e-01
    2.0392156862745096e-02 -1.9999999999999998e-01 1. 0.
    2.0392156862745096e-02 -1.9999999999999998e-01 1. 0. 1. 0. 1. 0. 1.
    0. 1. 0. 1. 0. 1. 0. 1. 0. 1. 0. 1. 0. 1. 0. 1. 0.
    2.0392156862745096e-02 -1.9999999999999998e-01
    2.0392156862745096e-02 -1.9999999999999998e-01
    1.4716771567578694e-02 -2.8867513459481287e-01
    1.2274636000901959e-02 -3.6115755925730764e-01
    1.0869056127933079e-02 -4.2640143271122083e-01
    9.9503536849654371e-03 -4.8795003647426666e-01
    1.0869056127933079e-02 -4.2640143271122083e-01
    8.4967320261437902e-03 -6.6666666666666663e-01
    7.9376362934116072e-03 -8.5634883857767530e-01
    7.8664452921850779e-03 -9.2582009977255153e-01
    7.8664452921850779e-03 -9.2582009977255153e-01
    7.8664452921850779e-03 -9.2582009977255153e-01
    7.8664452921850779e-03 -9.2582009977255153e-01
    7.9376362934116072e-03 -8.5634883857767530e-01
    7.9376362934116072e-03 -8.5634883857767530e-01
    7.8664452921850779e-03 -9.2582009977255153e-01
    7.8664452921850779e-03 -9.2582009977255153e-01
    7.8664452921850779e-03 -9.2582009977255153e-01
    7.8664452921850779e-03 -1.0801234497346435e+00
    7.8431372549019607e-03 -1. 8.0607077612135179e-03
    -7.9056941504209499e-01 9.9503536849654371e-03
    -4.8795003647426666e-01 9.9503536849654371e-03
    -4.8795003647426666e-01 1.0869056127933079e-02
    -4.2640143271122083e-01 1.0869056127933079e-02
    -4.2640143271122083e-01 1.2274636000901959e-02
    -3.6115755925730764e-01 1.4716771567578694e-02
    -2.8867513459481287e-01 1.4716771567578694e-02
    -2.8867513459481287e-01 1.4716771567578694e-02
    -2.8867513459481287e-01 1. 0. 1. 0. 1. 0. 1. 0. 1. 0. 1. 0. 1. 0. 1.
    0. 1. 0. 1. 0. 2.0392156862745096e-02 -1.9999999999999998e-01
    1.4716771567578694e-02 -2.8867513459481287e-01
    1.4716771567578694e-02 -2.8867513459481287e-01
    1.0869056127933079e-02 -4.2640143271122083e-01
    1.0869056127933079e-02 -4.2640143271122083e-01
    9.9503536849654371e-03 -4.8795003647426666e-01
    8.0607077612135179e-03 -7.9056941504209499e-01
    7.8664452921850779e-03 -9.2582009977255153e-01
    7.8664452921850779e-03 -9.2582009977255153e-01
    7.8664452921850779e-03 -9.2582009977255153e-01
    7.8664452921850779e-03 -1.0801234497346435e+00
    7.8664452921850779e-03 -1.0801234497346435e+00
    7.9376362934116072e-03 -1.1677484162422844e+00
    8.0607077612135161e-03 -1.2649110640673518e+00
    8.0607077612135161e-03 -1.2649110640673518e+00
    7.8664452921850779e-03 -1.0801234497346435e+00
    8.0607077612135161e-03 -1.2649110640673518e+00
    8.0607077612135161e-03 -1.2649110640673518e+00
    8.0607077612135161e-03 -1.2649110640673518e+00
    8.0607077612135161e-03 -1.2649110640673518e+00
    7.9376362934116072e-03 -1.1677484162422844e+00
    7.8431372549019607e-03 -1. 7.8431372549019607e-03 -1.
    7.9376362934116072e-03 -8.5634883857767530e-01
    8.2430408509080490e-03 -7.2760687510899902e-01
    1.0869056127933079e-02 -4.2640143271122083e-01
    1.0869056127933079e-02 -4.2640143271122083e-01
    1.2274636000901959e-02 -3.6115755925730764e-01
    1.4716771567578694e-02 -2.8867513459481287e-01
    1.4716771567578694e-02 -2.8867513459481287e-01
    1.4716771567578694e-02 -2.8867513459481287e-01 1. 0. 1. 0. 1. 0. 1.
    0. 1. 0. 1. 0. 1. 0. 1. 0. 1.4716771567578694e-02
    -2.8867513459481287e-01 1.4716771567578694e-02
    -2.8867513459481287e-01 1.2274636000901959e-02
    -3.6115755925730764e-01 1.0869056127933079e-02
    -4.2640143271122083e-01 9.9503536849654371e-03
    -4.8795003647426666e-01 8.2430408509080490e-03
    -7.2760687510899902e-01 7.8664452921850779e-03
    -9.2582009977255153e-01 7.8664452921850779e-03
    -1.0801234497346435e+00 7.8664452921850779e-03
    -1.0801234497346435e+00 7.9376362934116072e-03
    -1.1677484162422844e+00 8.0607077612135161e-03
    -1.2649110640673518e+00 8.2430408509080472e-03
    -1.3743685418725533e+00 8.2430408509080472e-03
    -1.3743685418725533e+00 8.2430408509080472e-03
    -1.3743685418725533e+00 8.0607077612135161e-03
    -1.2649110640673518e+00 8.4967320261437902e-03
    -1.5000000000000000e+00 8.8411212578929851e-03
    -1.6475089420958273e+00 8.8411212578929851e-03
    -1.6475089420958273e+00 8.2430408509080472e-03
    -1.3743685418725533e+00 8.4967320261437902e-03
    -1.5000000000000000e+00 8.4967320261437902e-03
    -1.5000000000000000e+00 8.4967320261437902e-03
    -1.5000000000000000e+00 8.2430408509080472e-03
    -1.3743685418725533e+00 8.0607077612135161e-03
    -1.2649110640673518e+00 7.8664452921850779e-03
    -1.0801234497346435e+00 7.8664452921850779e-03
    -1.0801234497346435e+00 7.8664452921850779e-03
    -9.2582009977255153e-01 8.2430408509080490e-03
    -7.2760687510899902e-01 9.9503536849654371e-03
    -4.8795003647426666e-01 1.2274636000901959e-02
    -3.6115755925730764e-01 1.4716771567578694e-02
    -2.8867513459481287e-01 1.4716771567578694e-02
    -2.8867513459481287e-01 2.0392156862745096e-02
    -1.9999999999999998e-01 1. 0. 1. 0. 1. 0. 1. 0. 1. 0. 1. 0.
    1.4716771567578694e-02 -2.8867513459481287e-01
    1.4716771567578694e-02 -2.8867513459481287e-01
    1.4716771567578694e-02 -2.8867513459481287e-01
    1.2274636000901959e-02 -3.6115755925730764e-01
    8.8411212578929886e-03 -6.0697697866688405e-01
    7.8664452921850779e-03 -9.2582009977255153e-01
    7.8431372549019607e-03 -1. 7.8431372549019607e-03 -1.
    7.9376362934116072e-03 -1.1677484162422844e+00
    8.0607077612135161e-03 -1.2649110640673518e+00
    8.2430408509080472e-03 -1.3743685418725533e+00
    8.4967320261437902e-03 -1.5000000000000000e+00
    8.2430408509080472e-03 -1.3743685418725533e+00
    8.0607077612135161e-03 -1.2649110640673518e+00
    8.2430408509080472e-03 -1.3743685418725533e+00
    8.4967320261437902e-03 -1.5000000000000000e+00
    8.8411212578929851e-03 -1.6475089420958273e+00
    9.3077035915910614e-03 -1.8257418583505545e+00
    9.3077035915910614e-03 -1.8257418583505545e+00
    9.3077035915910614e-03 -1.8257418583505545e+00
    8.4967320261437902e-03 -1.5000000000000000e+00
    8.4967320261437902e-03 -1.5000000000000000e+00
    8.4967320261437902e-03 -1.5000000000000000e+00
    8.2430408509080472e-03 -1.3743685418725533e+00
    8.2430408509080472e-03 -1.3743685418725533e+00
    8.2430408509080472e-03 -1.3743685418725533e+00
    8.0607077612135161e-03 -1.2649110640673518e+00
    7.9376362934116072e-03 -1.1677484162422844e+00
    7.8431372549019607e-03 -1. 7.9376362934116072e-03
    -8.5634883857767530e-01 9.3077035915910579e-03
    -5.4772255750516607e-01 1.4716771567578694e-02
    -2.8867513459481287e-01 1.4716771567578694e-02
    -2.8867513459481287e-01 1.4716771567578694e-02
    -2.8867513459481287e-01 1.4716771567578694e-02
    -2.8867513459481287e-01 1. 0. 1. 0. 1. 0. 1. 0.
    1.4716771567578694e-02 -2.8867513459481287e-01
    1.4716771567578694e-02 -2.8867513459481287e-01
    1.4716771567578694e-02 -2.8867513459481287e-01
    1.2274636000901959e-02 -3.6115755925730764e-01
    8.8411212578929886e-03 -6.0697697866688405e-01
    7.8431372549019607e-03 -1. 7.8431372549019607e-03 -1.
    7.8664452921850779e-03 -1.0801234497346435e+00
    7.8664452921850779e-03 -1.0801234497346435e+00
    8.2430408509080472e-03 -1.3743685418725533e+00
    8.4967320261437902e-03 -1.5000000000000000e+00
    8.4967320261437902e-03 -1.5000000000000000e+00
    8.4967320261437902e-03 -1.5000000000000000e+00
    8.4967320261437902e-03 -1.5000000000000000e+00
    8.4967320261437902e-03 -1.5000000000000000e+00
    8.4967320261437902e-03 -1.5000000000000000e+00
    8.4967320261437902e-03 -1.5000000000000000e+00
    8.8411212578929851e-03 -1.6475089420958273e+00
    8.8411212578929851e-03 -1.6475089420958273e+00
    8.8411212578929851e-03 -1.6475089420958273e+00
    8.8411212578929851e-03 -1.6475089420958273e+00
    8.8411212578929851e-03 -1.6475089420958273e+00
    8.4967320261437902e-03 -1.5000000000000000e+00
    8.4967320261437902e-03 -1.5000000000000000e+00
    8.4967320261437902e-03 -1.5000000000000000e+00
    8.4967320261437902e-03 -1.5000000000000000e+00
    8.4967320261437902e-03 -1.5000000000000000e+00
    8.4967320261437902e-03 -1.5000000000000000e+00
    8.0607077612135161e-03 -1.2649110640673518e+00
    8.0607077612135161e-03 -1.2649110640673518e+00
    7.8431372549019607e-03 -1. 7.8431372549019607e-03 -1.
    9.3077035915910579e-03 -5.4772255750516607e-01
    1.2274636000901959e-02 -3.6115755925730764e-01
    1.4716771567578694e-02 -2.8867513459481287e-01
    1.4716771567578694e-02 -2.8867513459481287e-01
    2.0392156862745096e-02 -1.9999999999999998e-01 1. 0. 1. 0.
    1.4716771567578694e-02 -2.8867513459481287e-01
    1.4716771567578694e-02 -2.8867513459481287e-01
    1.4716771567578694e-02 -2.8867513459481287e-01
    1.2274636000901959e-02 -3.6115755925730764e-01
    8.4967320261437902e-03 -6.6666666666666663e-01
    7.8431372549019607e-03 -1. 7.8664452921850779e-03
    -9.2582009977255153e-01 7.8664452921850779e-03
    -1.0801234497346435e+00 7.9376362934116072e-03
    -1.1677484162422844e+00 7.9376362934116072e-03
    -1.1677484162422844e+00 8.2430408509080472e-03
    -1.3743685418725533e+00 8.4967320261437902e-03
    -1.5000000000000000e+00 8.4967320261437902e-03
    -1.5000000000000000e+00 9.3077035915910614e-03
    -1.8257418583505545e+00 8.8411212578929851e-03
    -1.6475089420958273e+00 9.3077035915910614e-03
    -1.8257418583505545e+00 8.8411212578929851e-03
    -1.6475089420958273e+00 9.3077035915910614e-03
    -1.8257418583505545e+00 8.8411212578929851e-03
    -1.6475089420958273e+00 8.8411212578929851e-03
    -1.6475089420958273e+00 8.8411212578929851e-03
    -1.6475089420958273e+00 8.4967320261437902e-03
    -1.5000000000000000e+00 8.4967320261437902e-03
    -1.5000000000000000e+00 8.4967320261437902e-03
    -1.5000000000000000e+00 8.2430408509080472e-03
    -1.3743685418725533e+00 8.4967320261437902e-03
    -1.5000000000000000e+00 8.4967320261437902e-03
    -1.5000000000000000e+00 8.8411212578929851e-03
    -1.6475089420958273e+00 8.2430408509080472e-03
    -1.3743685418725533e+00 8.4967320261437902e-03
    -1.5000000000000000e+00 8.0607077612135161e-03
    -1.2649110640673518e+00 7.8664452921850779e-03
    -1.0801234497346435e+00 7.8431372549019607e-03 -1.
    7.8431372549019607e-03 -1. 8.8411212578929886e-03
    -6.0697697866688405e-01 1.0869056127933079e-02
    -4.2640143271122083e-01 1.2274636000901959e-02
    -3.6115755925730764e-01 1.4716771567578694e-02
    -2.8867513459481287e-01 2.0392156862745096e-02
    -1.9999999999999998e-01 2.0392156862745096e-02
    -1.9999999999999998e-01 1.2274636000901959e-02
    -3.6115755925730764e-01 1.2274636000901959e-02
    -3.6115755925730764e-01 1.0869056127933079e-02
    -4.2640143271122083e-01 8.8411212578929886e-03
    -6.0697697866688405e-01 7.8664452921850779e-03
    -9.2582009977255153e-01 7.8664452921850779e-03
    -9.2582009977255153e-01 7.8431372549019607e-03 -1.
    7.8664452921850779e-03 -1.0801234497346435e+00
    7.9376362934116072e-03 -1.1677484162422844e+00
    8.0607077612135161e-03 -1.2649110640673518e+00
    8.4967320261437902e-03 -1.5000000000000000e+00
    8.4967320261437902e-03 -1.5000000000000000e+00
    8.8411212578929851e-03 -1.6475089420958273e+00
    8.8411212578929851e-03 -1.6475089420958273e+00
    9.9503536849654354e-03 -2.0493901531919194e+00
    9.9503536849654354e-03 -2.0493901531919194e+00
    9.9503536849654354e-03 -2.0493901531919194e+00
    8.8411212578929851e-03 -1.6475089420958273e+00
    9.3077035915910614e-03 -1.8257418583505545e+00
    8.8411212578929851e-03 -1.6475089420958273e+00
    8.4967320261437902e-03 -1.5000000000000000e+00
    8.4967320261437902e-03 -1.5000000000000000e+00
    8.4967320261437902e-03 -1.5000000000000000e+00
    8.4967320261437902e-03 -1.5000000000000000e+00
    8.4967320261437902e-03 -1.5000000000000000e+00
    8.2430408509080472e-03 -1.3743685418725533e+00
    8.4967320261437902e-03 -1.5000000000000000e+00
    8.2430408509080472e-03 -1.3743685418725533e+00
    8.4967320261437902e-03 -1.5000000000000000e+00
    8.4967320261437902e-03 -1.5000000000000000e+00
    8.4967320261437902e-03 -1.5000000000000000e+00
    7.9376362934116072e-03 -1.1677484162422844e+00
    7.8664452921850779e-03 -1.0801234497346435e+00
    7.8664452921850779e-03 -9.2582009977255153e-01
    7.8664452921850779e-03 -9.2582009977255153e-01
    9.3077035915910579e-03 -5.4772255750516607e-01
    9.9503536849654371e-03 -4.8795003647426666e-01
    1.2274636000901959e-02 -3.6115755925730764e-01
    1.4716771567578694e-02 -2.8867513459481287e-01
    1.4716771567578694e-02 -2.8867513459481287e-01
    1.4716771567578694e-02 -2.8867513459481287e-01
    1.0869056127933079e-02 -4.2640143271122083e-01
    8.8411212578929886e-03 -6.0697697866688405e-01
    7.9376362934116072e-03 -8.5634883857767530e-01
    7.8664452921850779e-03 -9.2582009977255153e-01
    7.8431372549019607e-03 -1. 7.8431372549019607e-03 -1.
    7.9376362934116072e-03 -1.1677484162422844e+00
    7.8664452921850779e-03 -1.0801234497346435e+00
    7.9376362934116072e-03 -1.1677484162422844e+00
    8.2430408509080472e-03 -1.3743685418725533e+00
    8.4967320261437902e-03 -1.5000000000000000e+00
    9.3077035915910614e-03 -1.8257418583505545e+00
    8.8411212578929851e-03 -1.6475089420958273e+00
    9.9503536849654354e-03 -2.0493901531919194e+00
    1.0869056127933081e-02 -2.3452078799117149e+00
    1.0869056127933081e-02 -2.3452078799117149e+00
    1.2274636000901954e-02 -2.7688746209726909e+00
    9.9503536849654354e-03 -2.0493901531919194e+00
    9.9503536849654354e-03 -2.0493901531919194e+00
    9.3077035915910614e-03 -1.8257418583505545e+00
    9.3077035915910614e-03 -1.8257418583505545e+00
    9.9503536849654354e-03 -2.0493901531919194e+00
    9.9503536849654354e-03 -2.0493901531919194e+00
    9.3077035915910614e-03 -1.8257418583505545e+00
    9.3077035915910614e-03 -1.8257418583505545e+00
    8.4967320261437902e-03 -1.5000000000000000e+00
    8.4967320261437902e-03 -1.5000000000000000e+00
    8.2430408509080472e-03 -1.3743685418725533e+00
    8.2430408509080472e-03 -1.3743685418725533e+00
    8.0607077612135161e-03 -1.2649110640673518e+00
    8.0607077612135161e-03 -1.2649110640673518e+00
    7.8664452921850779e-03 -1.0801234497346435e+00
    7.8664452921850779e-03 -1.0801234497346435e+00
    7.8664452921850779e-03 -9.2582009977255153e-01
    8.2430408509080490e-03 -7.2760687510899902e-01
    8.8411212578929886e-03 -6.0697697866688405e-01
    9.9503536849654371e-03 -4.8795003647426666e-01
    1.2274636000901959e-02 -3.6115755925730764e-01 1. 0.
    1.2274636000901959e-02 -3.6115755925730764e-01
    1.0869056127933079e-02 -4.2640143271122083e-01
    8.2430408509080490e-03 -7.2760687510899902e-01
    7.8431372549019607e-03 -1. 7.8664452921850779e-03
    -1.0801234497346435e+00 7.8664452921850779e-03
    -1.0801234497346435e+00 8.0607077612135161e-03
    -1.2649110640673518e+00 8.0607077612135161e-03
    -1.2649110640673518e+00 7.8664452921850779e-03
    -1.0801234497346435e+00 7.9376362934116072e-03
    -1.1677484162422844e+00 8.2430408509080472e-03
    -1.3743685418725533e+00 9.3077035915910614e-03
    -1.8257418583505545e+00 9.3077035915910614e-03
    -1.8257418583505545e+00 1.2274636000901954e-02
    -2.7688746209726909e+00 1.2274636000901954e-02
    -2.7688746209726909e+00 1.2274636000901954e-02
    -2.7688746209726909e+00 1.0869056127933081e-02
    -2.3452078799117149e+00 1.0869056127933081e-02
    -2.3452078799117149e+00 9.9503536849654354e-03
    -2.0493901531919194e+00 9.9503536849654354e-03
    -2.0493901531919194e+00 9.3077035915910614e-03
    -1.8257418583505545e+00 9.3077035915910614e-03
    -1.8257418583505545e+00 9.9503536849654354e-03
    -2.0493901531919194e+00 1.0869056127933081e-02
    -2.3452078799117149e+00 1.0869056127933081e-02
    -2.3452078799117149e+00 1.0869056127933081e-02
    -2.3452078799117149e+00 9.3077035915910614e-03
    -1.8257418583505545e+00 8.8411212578929851e-03
    -1.6475089420958273e+00 8.4967320261437902e-03
    -1.5000000000000000e+00 8.4967320261437902e-03
    -1.5000000000000000e+00 7.9376362934116072e-03
    -1.1677484162422844e+00 8.0607077612135161e-03
    -1.2649110640673518e+00 8.0607077612135161e-03
    -1.2649110640673518e+00 7.9376362934116072e-03
    -1.1677484162422844e+00 7.9376362934116072e-03
    -1.1677484162422844e+00 7.8664452921850779e-03
    -9.2582009977255153e-01 8.4967320261437902e-03
    -6.6666666666666663e-01 9.9503536849654371e-03
    -4.8795003647426666e-01 1.0869056127933079e-02
    -4.2640143271122083e-01 2.0392156862745096e-02
    -1.9999999999999998e-01 1.2274636000901959e-02
    -3.6115755925730764e-01 9.3077035915910579e-03
    -5.4772255750516607e-01 7.8664452921850779e-03
    -9.2582009977255153e-01 7.8664452921850779e-03
    -1.0801234497346435e+00 7.8664452921850779e-03
    -1.0801234497346435e+00 8.0607077612135161e-03
    -1.2649110640673518e+00 8.0607077612135161e-03
    -1.2649110640673518e+00 8.0607077612135161e-03
    -1.2649110640673518e+00 8.2430408509080472e-03
    -1.3743685418725533e+00 8.4967320261437902e-03
    -1.5000000000000000e+00 9.9503536849654354e-03
    -2.0493901531919194e+00 1.0869056127933081e-02
    -2.3452078799117149e+00 1.2274636000901954e-02
    -2.7688746209726909e+00 1.2274636000901954e-02
    -2.7688746209726909e+00 1.2274636000901954e-02
    -2.7688746209726909e+00 1.0869056127933081e-02
    -2.3452078799117149e+00 1.0869056127933081e-02
    -2.3452078799117149e+00 1.0869056127933081e-02
    -2.3452078799117149e+00 1.0869056127933081e-02
    -2.3452078799117149e+00 9.9503536849654354e-03
    -2.0493901531919194e+00 1.0869056127933081e-02
    -2.3452078799117149e+00 9.9503536849654354e-03
    -2.0493901531919194e+00 9.3077035915910614e-03
    -1.8257418583505545e+00 1.2274636000901954e-02
    -2.7688746209726909e+00 1.2274636000901954e-02
    -2.7688746209726909e+00 1.2274636000901954e-02
    -2.7688746209726909e+00 1.0869056127933081e-02
    -2.3452078799117149e+00 9.3077035915910614e-03
    -1.8257418583505545e+00 9.3077035915910614e-03
    -1.8257418583505545e+00 9.3077035915910614e-03
    -1.8257418583505545e+00 8.2430408509080472e-03
    -1.3743685418725533e+00 7.9376362934116072e-03
    -1.1677484162422844e+00 8.2430408509080472e-03
    -1.3743685418725533e+00 8.0607077612135161e-03
    -1.2649110640673518e+00 7.9376362934116072e-03
    -1.1677484162422844e+00 7.8664452921850779e-03
    -1.0801234497346435e+00 7.9376362934116072e-03
    -8.5634883857767530e-01 8.8411212578929886e-03
    -6.0697697866688405e-01 1.0869056127933079e-02
    -4.2640143271122083e-01 1. 0. 1.0869056127933079e-02
    -4.2640143271122083e-01 8.4967320261437902e-03
    -6.6666666666666663e-01 7.8431372549019607e-03 -1.
    7.9376362934116072e-03 -1.1677484162422844e+00
    7.9376362934116072e-03 -1.1677484162422844e+00
    8.0607077612135161e-03 -1.2649110640673518e+00
    8.2430408509080472e-03 -1.3743685418725533e+00
    8.2430408509080472e-03 -1.3743685418725533e+00
    8.2430408509080472e-03 -1.3743685418725533e+00
    8.4967320261437902e-03 -1.5000000000000000e+00
    9.3077035915910614e-03 -1.8257418583505545e+00
    1.0869056127933081e-02 -2.3452078799117149e+00
    1.4716771567578705e-02 -3.4641016151377566e+00
    1.2274636000901954e-02 -2.7688746209726909e+00
    1.4716771567578705e-02 -3.4641016151377566e+00
    1.4716771567578705e-02 -3.4641016151377566e+00
    1.4716771567578705e-02 -3.4641016151377566e+00
    1.4716771567578705e-02 -3.4641016151377566e+00
    1.4716771567578705e-02 -3.4641016151377566e+00
    2.0392156862745064e-02 -4.9999999999999911e+00
    1.4716771567578705e-02 -3.4641016151377566e+00
    1.4716771567578705e-02 -3.4641016151377566e+00
    1.4716771567578705e-02 -3.4641016151377566e+00
    1.4716771567578705e-02 -3.4641016151377566e+00
    1.4716771567578705e-02 -3.4641016151377566e+00
    1.2274636000901954e-02 -2.7688746209726909e+00
    1.0869056127933081e-02 -2.3452078799117149e+00
    1.0869056127933081e-02 -2.3452078799117149e+00
    9.3077035915910614e-03 -1.8257418583505545e+00
    9.3077035915910614e-03 -1.8257418583505545e+00
    8.8411212578929851e-03 -1.6475089420958273e+00
    8.2430408509080472e-03 -1.3743685418725533e+00
    8.4967320261437902e-03 -1.5000000000000000e+00
    8.0607077612135161e-03 -1.2649110640673518e+00
    7.9376362934116072e-03 -1.1677484162422844e+00
    7.8664452921850779e-03 -1.0801234497346435e+00
    7.8664452921850779e-03 -1.0801234497346435e+00
    8.2430408509080490e-03 -7.2760687510899902e-01
    1.0869056127933079e-02 -4.2640143271122083e-01
    2.0392156862745096e-02 -1.9999999999999998e-01
    9.9503536849654371e-03 -4.8795003647426666e-01
    7.9376362934116072e-03 -8.5634883857767530e-01
    7.8431372549019607e-03 -1. 7.8664452921850779e-03
    -1.0801234497346435e+00 8.0607077612135161e-03
    -1.2649110640673518e+00 8.2430408509080472e-03
    -1.3743685418725533e+00 8.0607077612135161e-03
    -1.2649110640673518e+00 8.2430408509080472e-03
    -1.3743685418725533e+00 8.4967320261437902e-03
    -1.5000000000000000e+00 8.8411212578929851e-03
    -1.6475089420958273e+00 9.9503536849654354e-03
    -2.0493901531919194e+00 1.0869056127933081e-02
    -2.3452078799117149e+00 1.2274636000901954e-02
    -2.7688746209726909e+00 1.4716771567578705e-02
    -3.4641016151377566e+00 1.4716771567578705e-02
    -3.4641016151377566e+00 1.4716771567578705e-02
    -3.4641016151377566e+00 1.4716771567578705e-02
    -3.4641016151377566e+00 1.4716771567578705e-02
    -3.4641016151377566e+00 2.0392156862745064e-02
    -4.9999999999999911e+00 2.0392156862745064e-02
    -4.9999999999999911e+00 2.0392156862745064e-02
    -4.9999999999999911e+00 2.0392156862745064e-02
    -4.9999999999999911e+00 2.0392156862745064e-02
    -4.9999999999999911e+00 1.4716771567578705e-02
    -3.4641016151377566e+00 1.4716771567578705e-02
    -3.4641016151377566e+00 1.2274636000901954e-02
    -2.7688746209726909e+00 1.2274636000901954e-02
    -2.7688746209726909e+00 1.0869056127933081e-02
    -2.3452078799117149e+00 9.9503536849654354e-03
    -2.0493901531919194e+00 9.3077035915910614e-03
    -1.8257418583505545e+00 8.8411212578929851e-03
    -1.6475089420958273e+00 8.4967320261437902e-03
    -1.5000000000000000e+00 8.2430408509080472e-03
    -1.3743685418725533e+00 8.2430408509080472e-03
    -1.3743685418725533e+00 8.0607077612135161e-03
    -1.2649110640673518e+00 7.8664452921850779e-03
    -1.0801234497346435e+00 7.8431372549019607e-03 -1.
    8.0607077612135179e-03 -7.9056941504209499e-01
    1.0869056127933079e-02 -4.2640143271122083e-01
    2.0392156862745096e-02 -1.9999999999999998e-01
    8.8411212578929886e-03 -6.0697697866688405e-01
    7.8664452921850779e-03 -9.2582009977255153e-01
    7.8431372549019607e-03 -1. 7.8664452921850779e-03
    -1.0801234497346435e+00 8.0607077612135161e-03
    -1.2649110640673518e+00 8.0607077612135161e-03
    -1.2649110640673518e+00 8.2430408509080472e-03
    -1.3743685418725533e+00 8.2430408509080472e-03
    -1.3743685418725533e+00 8.2430408509080472e-03
    -1.3743685418725533e+00 9.9503536849654354e-03
    -2.0493901531919194e+00 1.2274636000901954e-02
    -2.7688746209726909e+00 1.2274636000901954e-02
    -2.7688746209726909e+00 1.0869056127933081e-02
    -2.3452078799117149e+00 1.0869056127933081e-02
    -2.3452078799117149e+00 1.2274636000901954e-02
    -2.7688746209726909e+00 1.4716771567578705e-02
    -3.4641016151377566e+00 2.0392156862745064e-02
    -4.9999999999999911e+00 2.0392156862745064e-02
    -4.9999999999999911e+00 1.4716771567578705e-02
    -3.4641016151377566e+00 2.0392156862745064e-02
    -4.9999999999999911e+00 1.4716771567578705e-02
    -3.4641016151377566e+00 1.4716771567578705e-02
    -3.4641016151377566e+00 1.4716771567578705e-02
    -3.4641016151377566e+00 1.4716771567578705e-02
    -3.4641016151377566e+00 1.4716771567578705e-02
    -3.4641016151377566e+00 1.2274636000901954e-02
    -2.7688746209726909e+00 1.2274636000901954e-02
    -2.7688746209726909e+00 1.2274636000901954e-02
    -2.7688746209726909e+00 1.2274636000901954e-02
    -2.7688746209726909e+00 9.9503536849654354e-03
    -2.0493901531919194e+00 8.8411212578929851e-03
    -1.6475089420958273e+00 8.4967320261437902e-03
    -1.5000000000000000e+00 8.4967320261437902e-03
    -1.5000000000000000e+00 8.2430408509080472e-03
    -1.3743685418725533e+00 8.0607077612135161e-03
    -1.2649110640673518e+00 7.9376362934116072e-03
    -1.1677484162422844e+00 7.8431372549019607e-03 -1.
    7.8664452921850779e-03 -9.2582009977255153e-01
    8.8411212578929886e-03 -6.0697697866688405e-01
    1.0869056127933079e-02 -4.2640143271122083e-01
    7.9376362934116072e-03 -8.5634883857767530e-01
    7.8431372549019607e-03 -1. 7.8664452921850779e-03
    -1.0801234497346435e+00 7.8664452921850779e-03
    -1.0801234497346435e+00 7.9376362934116072e-03
    -1.1677484162422844e+00 7.9376362934116072e-03
    -1.1677484162422844e+00 8.0607077612135161e-03
    -1.2649110640673518e+00 8.0607077612135161e-03
    -1.2649110640673518e+00 9.3077035915910614e-03
    -1.8257418583505545e+00 1.0869056127933081e-02
    -2.3452078799117149e+00 1.0869056127933081e-02
    -2.3452078799117149e+00 1.0869056127933081e-02
    -2.3452078799117149e+00 1.0869056127933081e-02
    -2.3452078799117149e+00 1.0869056127933081e-02
    -2.3452078799117149e+00 1.2274636000901954e-02
    -2.7688746209726909e+00 1.4716771567578705e-02
    -3.4641016151377566e+00 2.0392156862745064e-02
    -4.9999999999999911e+00 1.4716771567578705e-02
    -3.4641016151377566e+00 1.4716771567578705e-02
    -3.4641016151377566e+00 2.0392156862745064e-02
    -4.9999999999999911e+00 2.0392156862745064e-02
    -4.9999999999999911e+00 1.4716771567578705e-02
    -3.4641016151377566e+00 1.4716771567578705e-02
    -3.4641016151377566e+00 1.4716771567578705e-02
    -3.4641016151377566e+00 1.4716771567578705e-02
    -3.4641016151377566e+00 2.0392156862745064e-02
    -4.9999999999999911e+00 1.4716771567578705e-02
    -3.4641016151377566e+00 1.4716771567578705e-02
    -3.4641016151377566e+00 1.4716771567578705e-02
    -3.4641016151377566e+00 9.9503536849654354e-03
    -2.0493901531919194e+00 9.9503536849654354e-03
    -2.0493901531919194e+00 8.2430408509080472e-03
    -1.3743685418725533e+00 8.4967320261437902e-03
    -1.5000000000000000e+00 8.2430408509080472e-03
    -1.3743685418725533e+00 8.0607077612135161e-03
    -1.2649110640673518e+00 7.9376362934116072e-03
    -1.1677484162422844e+00 7.8664452921850779e-03
    -1.0801234497346435e+00 7.8664452921850779e-03
    -9.2582009977255153e-01 8.0607077612135179e-03
    -7.9056941504209499e-01 1.2274636000901959e-02
    -3.6115755925730764e-01 7.8664452921850779e-03
    -9.2582009977255153e-01 7.8664452921850779e-03
    -1.0801234497346435e+00 7.8664452921850779e-03
    -1.0801234497346435e+00 7.8664452921850779e-03
    -1.0801234497346435e+00 7.9376362934116072e-03
    -1.1677484162422844e+00 8.0607077612135161e-03
    -1.2649110640673518e+00 8.2430408509080472e-03
    -1.3743685418725533e+00 8.8411212578929851e-03
    -1.6475089420958273e+00 9.9503536849654354e-03
    -2.0493901531919194e+00 1.0869056127933081e-02
    -2.3452078799117149e+00 1.0869056127933081e-02
    -2.3452078799117149e+00 1.0869056127933081e-02
    -2.3452078799117149e+00 1.0869056127933081e-02
    -2.3452078799117149e+00 1.2274636000901954e-02
    -2.7688746209726909e+00 1.4716771567578705e-02
    -3.4641016151377566e+00 1.4716771567578705e-02
    -3.4641016151377566e+00 1.4716771567578705e-02
    -3.4641016151377566e+00 2.0392156862745064e-02
    -4.9999999999999911e+00 1. -255. 2.0392156862745064e-02
    -4.9999999999999911e+00 2.0392156862745064e-02
    -4.9999999999999911e+00 2.0392156862745064e-02
    -4.9999999999999911e+00 1.4716771567578705e-02
    -3.4641016151377566e+00 2.0392156862745064e-02
    -4.9999999999999911e+00 2.0392156862745064e-02
    -4.9999999999999911e+00 1.4716771567578705e-02
    -3.4641016151377566e+00 1.4716771567578705e-02
    -3.4641016151377566e+00 1.4716771567578705e-02
    -3.4641016151377566e+00 1.2274636000901954e-02
    -2.7688746209726909e+00 1.0869056127933081e-02
    -2.3452078799117149e+00 9.9503536849654354e-03
    -2.0493901531919194e+00 8.8411212578929851e-03
    -1.6475089420958273e+00 8.8411212578929851e-03
    -1.6475089420958273e+00 8.2430408509080472e-03
    -1.3743685418725533e+00 8.2430408509080472e-03
    -1.3743685418725533e+00 7.8664452921850779e-03
    -1.0801234497346435e+00 7.8664452921850779e-03
    -1.0801234497346435e+00 7.8431372549019607e-03 -1.
    7.8664452921850779e-03 -9.2582009977255153e-01
    1.0869056127933079e-02 -4.2640143271122083e-01
    7.8664452921850779e-03 -9.2582009977255153e-01
    7.8664452921850779e-03 -1.0801234497346435e+00
    7.8664452921850779e-03 -1.0801234497346435e+00
    7.8664452921850779e-03 -1.0801234497346435e+00
    8.0607077612135161e-03 -1.2649110640673518e+00
    8.0607077612135161e-03 -1.2649110640673518e+00
    8.0607077612135161e-03 -1.2649110640673518e+00
    8.8411212578929851e-03 -1.6475089420958273e+00
    9.3077035915910614e-03 -1.8257418583505545e+00
    9.9503536849654354e-03 -2.0493901531919194e+00
    1.2274636000901954e-02 -2.7688746209726909e+00
    1.2274636000901954e-02 -2.7688746209726909e+00
    1.2274636000901954e-02 -2.7688746209726909e+00
    1.2274636000901954e-02 -2.7688746209726909e+00
    1.2274636000901954e-02 -2.7688746209726909e+00
    1.0869056127933081e-02 -2.3452078799117149e+00
    2.0392156862745064e-02 -4.9999999999999911e+00
    2.0392156862745064e-02 -4.9999999999999911e+00 1. -255.
    2.0392156862745064e-02 -4.9999999999999911e+00
    2.0392156862745064e-02 -4.9999999999999911e+00
    2.0392156862745064e-02 -4.9999999999999911e+00 1. -255. 1. -255.
    2.0392156862745064e-02 -4.9999999999999911e+00
    1.4716771567578705e-02 -3.4641016151377566e+00
    1.4716771567578705e-02 -3.4641016151377566e+00
    1.4716771567578705e-02 -3.4641016151377566e+00
    1.4716771567578705e-02 -3.4641016151377566e+00
    9.9503536849654354e-03 -2.0493901531919194e+00
    9.9503536849654354e-03 -2.0493901531919194e+00
    8.8411212578929851e-03 -1.6475089420958273e+00
    8.8411212578929851e-03 -1.6475089420958273e+00
    8.2430408509080472e-03 -1.3743685418725533e+00
    8.0607077612135161e-03 -1.2649110640673518e+00
    7.9376362934116072e-03 -1.1677484162422844e+00
    7.8664452921850779e-03 -1.0801234497346435e+00
    7.8664452921850779e-03 -1.0801234497346435e+00
    7.9376362934116072e-03 -8.5634883857767530e-01
    8.8411212578929886e-03 -6.0697697866688405e-01
    7.9376362934116072e-03 -8.5634883857767530e-01
    7.9376362934116072e-03 -1.1677484162422844e+00
    7.9376362934116072e-03 -1.1677484162422844e+00
    8.2430408509080472e-03 -1.3743685418725533e+00
    8.2430408509080472e-03 -1.3743685418725533e+00
    8.4967320261437902e-03 -1.5000000000000000e+00
    8.2430408509080472e-03 -1.3743685418725533e+00
    8.8411212578929851e-03 -1.6475089420958273e+00
    1.0869056127933081e-02 -2.3452078799117149e+00
    1.0869056127933081e-02 -2.3452078799117149e+00
    1.4716771567578705e-02 -3.4641016151377566e+00
    1.4716771567578705e-02 -3.4641016151377566e+00
    1.4716771567578705e-02 -3.4641016151377566e+00
    1.4716771567578705e-02 -3.4641016151377566e+00
    1.4716771567578705e-02 -3.4641016151377566e+00
    2.0392156862745064e-02 -4.9999999999999911e+00
    2.0392156862745064e-02 -4.9999999999999911e+00
    2.0392156862745064e-02 -4.9999999999999911e+00
    2.0392156862745064e-02 -4.9999999999999911e+00
    2.0392156862745064e-02 -4.9999999999999911e+00
    2.0392156862745064e-02 -4.9999999999999911e+00
    2.0392156862745064e-02 -4.9999999999999911e+00 1. -255. 1. -255. 1.
    -255. 1. -255. 2.0392156862745064e-02 -4.9999999999999911e+00
    2.0392156862745064e-02 -4.9999999999999911e+00
    1.2274636000901954e-02 -2.7688746209726909e+00
    9.9503536849654354e-03 -2.0493901531919194e+00
    1.0869056127933081e-02 -2.3452078799117149e+00
    8.8411212578929851e-03 -1.6475089420958273e+00
    8.8411212578929851e-03 -1.6475089420958273e+00
    8.2430408509080472e-03 -1.3743685418725533e+00
    8.0607077612135161e-03 -1.2649110640673518e+00
    7.9376362934116072e-03 -1.1677484162422844e+00
    7.8664452921850779e-03 -1.0801234497346435e+00
    7.8664452921850779e-03 -1.0801234497346435e+00
    7.9376362934116072e-03 -8.5634883857767530e-01
    8.2430408509080490e-03 -7.2760687510899902e-01
    7.9376362934116072e-03 -8.5634883857767530e-01
    7.9376362934116072e-03 -1.1677484162422844e+00
    7.9376362934116072e-03 -1.1677484162422844e+00
    8.0607077612135161e-03 -1.2649110640673518e+00
    8.2430408509080472e-03 -1.3743685418725533e+00
    8.4967320261437902e-03 -1.5000000000000000e+00
    8.2430408509080472e-03 -1.3743685418725533e+00
    9.3077035915910614e-03 -1.8257418583505545e+00
    9.9503536849654354e-03 -2.0493901531919194e+00
    1.0869056127933081e-02 -2.3452078799117149e+00
    1.2274636000901954e-02 -2.7688746209726909e+00
    1.2274636000901954e-02 -2.7688746209726909e+00
    1.2274636000901954e-02 -2.7688746209726909e+00
    1.2274636000901954e-02 -2.7688746209726909e+00
    1.2274636000901954e-02 -2.7688746209726909e+00
    1.2274636000901954e-02 -2.7688746209726909e+00
    2.0392156862745064e-02 -4.9999999999999911e+00
    2.0392156862745064e-02 -4.9999999999999911e+00
    2.0392156862745064e-02 -4.9999999999999911e+00
    2.0392156862745064e-02 -4.9999999999999911e+00
    2.0392156862745064e-02 -4.9999999999999911e+00
    2.0392156862745064e-02 -4.9999999999999911e+00
    2.0392156862745064e-02 -4.9999999999999911e+00 1. -255.
    2.0392156862745064e-02 -4.9999999999999911e+00 1. -255. 1. -255.
    1.4716771567578705e-02 -3.4641016151377566e+00
    1.2274636000901954e-02 -2.7688746209726909e+00
    9.9503536849654354e-03 -2.0493901531919194e+00
    9.9503536849654354e-03 -2.0493901531919194e+00
    8.8411212578929851e-03 -1.6475089420958273e+00
    8.4967320261437902e-03 -1.5000000000000000e+00
    8.4967320261437902e-03 -1.5000000000000000e+00
    8.2430408509080472e-03 -1.3743685418725533e+00
    8.0607077612135161e-03 -1.2649110640673518e+00
    7.9376362934116072e-03 -1.1677484162422844e+00
    7.8664452921850779e-03 -1.0801234497346435e+00
    7.8431372549019607e-03 -1. 8.0607077612135179e-03
    -7.9056941504209499e-01 8.0607077612135179e-03
    -7.9056941504209499e-01 7.8664452921850779e-03
    -1.0801234497346435e+00 7.9376362934116072e-03
    -1.1677484162422844e+00 8.2430408509080472e-03
    -1.3743685418725533e+00 8.4967320261437902e-03
    -1.5000000000000000e+00 8.4967320261437902e-03
    -1.5000000000000000e+00 8.4967320261437902e-03
    -1.5000000000000000e+00 9.3077035915910614e-03
    -1.8257418583505545e+00 9.3077035915910614e-03
    -1.8257418583505545e+00 8.8411212578929851e-03
    -1.6475089420958273e+00 1.0869056127933081e-02
    -2.3452078799117149e+00 1.2274636000901954e-02
    -2.7688746209726909e+00 1.2274636000901954e-02
    -2.7688746209726909e+00 1.2274636000901954e-02
    -2.7688746209726909e+00 1.2274636000901954e-02
    -2.7688746209726909e+00 1.4716771567578705e-02
    -3.4641016151377566e+00 1.4716771567578705e-02
    -3.4641016151377566e+00 2.0392156862745064e-02
    -4.9999999999999911e+00 1. -255. 2.0392156862745064e-02
    -4.9999999999999911e+00 2.0392156862745064e-02
    -4.9999999999999911e+00 2.0392156862745064e-02
    -4.9999999999999911e+00 2.0392156862745064e-02
    -4.9999999999999911e+00 1. -255. 2.0392156862745064e-02
    -4.9999999999999911e+00 1. -255. 2.0392156862745064e-02
    -4.9999999999999911e+00 2.0392156862745064e-02
    -4.9999999999999911e+00 1.4716771567578705e-02
    -3.4641016151377566e+00 8.8411212578929851e-03
    -1.6475089420958273e+00 8.8411212578929851e-03
    -1.6475089420958273e+00 8.2430408509080472e-03
    -1.3743685418725533e+00 8.2430408509080472e-03
    -1.3743685418725533e+00 8.2430408509080472e-03
    -1.3743685418725533e+00 8.2430408509080472e-03
    -1.3743685418725533e+00 8.2430408509080472e-03
    -1.3743685418725533e+00 8.0607077612135161e-03
    -1.2649110640673518e+00 7.8664452921850779e-03
    -1.0801234497346435e+00 7.8431372549019607e-03 -1.
    8.2430408509080490e-03 -7.2760687510899902e-01
    7.9376362934116072e-03 -8.5634883857767530e-01
    7.8664452921850779e-03 -9.2582009977255153e-01
    8.2430408509080472e-03 -1.3743685418725533e+00
    8.2430408509080472e-03 -1.3743685418725533e+00
    8.2430408509080472e-03 -1.3743685418725533e+00
    8.4967320261437902e-03 -1.5000000000000000e+00
    8.2430408509080472e-03 -1.3743685418725533e+00
    9.3077035915910614e-03 -1.8257418583505545e+00
    9.3077035915910614e-03 -1.8257418583505545e+00
    9.3077035915910614e-03 -1.8257418583505545e+00
    9.9503536849654354e-03 -2.0493901531919194e+00
    9.3077035915910614e-03 -1.8257418583505545e+00
    1.2274636000901954e-02 -2.7688746209726909e+00
    1.4716771567578705e-02 -3.4641016151377566e+00
    2.0392156862745064e-02 -4.9999999999999911e+00
    2.0392156862745064e-02 -4.9999999999999911e+00
    2.0392156862745064e-02 -4.9999999999999911e+00
    2.0392156862745064e-02 -4.9999999999999911e+00
    2.0392156862745064e-02 -4.9999999999999911e+00
    2.0392156862745064e-02 -4.9999999999999911e+00
    2.0392156862745064e-02 -4.9999999999999911e+00
    2.0392156862745064e-02 -4.9999999999999911e+00
    2.0392156862745064e-02 -4.9999999999999911e+00
    2.0392156862745064e-02 -4.9999999999999911e+00 1. -255.
    2.0392156862745064e-02 -4.9999999999999911e+00
    2.0392156862745064e-02 -4.9999999999999911e+00
    1.2274636000901954e-02 -2.7688746209726909e+00
    1.0869056127933081e-02 -2.3452078799117149e+00
    8.8411212578929851e-03 -1.6475089420958273e+00
    8.8411212578929851e-03 -1.6475089420958273e+00
    8.2430408509080472e-03 -1.3743685418725533e+00
    8.2430408509080472e-03 -1.3743685418725533e+00
    8.0607077612135161e-03 -1.2649110640673518e+00
    8.0607077612135161e-03 -1.2649110640673518e+00
    8.2430408509080472e-03 -1.3743685418725533e+00
    8.2430408509080472e-03 -1.3743685418725533e+00
    7.8431372549019607e-03 -1. 7.8664452921850779e-03
    -9.2582009977255153e-01 8.2430408509080490e-03
    -7.2760687510899902e-01 7.9376362934116072e-03
    -8.5634883857767530e-01 7.8431372549019607e-03 -1.
    8.0607077612135161e-03 -1.2649110640673518e+00
    8.2430408509080472e-03 -1.3743685418725533e+00
    8.2430408509080472e-03 -1.3743685418725533e+00
    8.2430408509080472e-03 -1.3743685418725533e+00
    8.2430408509080472e-03 -1.3743685418725533e+00
    9.3077035915910614e-03 -1.8257418583505545e+00
    9.3077035915910614e-03 -1.8257418583505545e+00
    9.3077035915910614e-03 -1.8257418583505545e+00
    1.0869056127933081e-02 -2.3452078799117149e+00
    1.2274636000901954e-02 -2.7688746209726909e+00
    1.2274636000901954e-02 -2.7688746209726909e+00
    2.0392156862745064e-02 -4.9999999999999911e+00
    1.4716771567578705e-02 -3.4641016151377566e+00
    1.4716771567578705e-02 -3.4641016151377566e+00
    2.0392156862745064e-02 -4.9999999999999911e+00
    2.0392156862745064e-02 -4.9999999999999911e+00
    2.0392156862745064e-02 -4.9999999999999911e+00
    2.0392156862745064e-02 -4.9999999999999911e+00 1. -255. 1. -255. 1.
    -255. 2.0392156862745064e-02 -4.9999999999999911e+00
    2.0392156862745064e-02 -4.9999999999999911e+00
    2.0392156862745064e-02 -4.9999999999999911e+00
    1.0869056127933081e-02 -2.3452078799117149e+00
    1.0869056127933081e-02 -2.3452078799117149e+00
    1.0869056127933081e-02 -2.3452078799117149e+00
    9.3077035915910614e-03 -1.8257418583505545e+00
    9.3077035915910614e-03 -1.8257418583505545e+00
    8.2430408509080472e-03 -1.3743685418725533e+00
    8.0607077612135161e-03 -1.2649110640673518e+00
    8.0607077612135161e-03 -1.2649110640673518e+00
    8.0607077612135161e-03 -1.2649110640673518e+00
    8.2430408509080472e-03 -1.3743685418725533e+00
    8.2430408509080472e-03 -1.3743685418725533e+00
    7.8664452921850779e-03 -1.0801234497346435e+00
    7.8664452921850779e-03 -9.2582009977255153e-01
    8.0607077612135179e-03 -7.9056941504209499e-01
    7.9376362934116072e-03 -8.5634883857767530e-01
    7.9376362934116072e-03 -1.1677484162422844e+00
    7.9376362934116072e-03 -1.1677484162422844e+00
    8.4967320261437902e-03 -1.5000000000000000e+00
    8.4967320261437902e-03 -1.5000000000000000e+00
    8.4967320261437902e-03 -1.5000000000000000e+00
    8.2430408509080472e-03 -1.3743685418725533e+00
    9.3077035915910614e-03 -1.8257418583505545e+00
    9.9503536849654354e-03 -2.0493901531919194e+00
    9.9503536849654354e-03 -2.0493901531919194e+00
    9.9503536849654354e-03 -2.0493901531919194e+00
    1.2274636000901954e-02 -2.7688746209726909e+00
    1.4716771567578705e-02 -3.4641016151377566e+00
    1.4716771567578705e-02 -3.4641016151377566e+00
    1.4716771567578705e-02 -3.4641016151377566e+00
    2.0392156862745064e-02 -4.9999999999999911e+00
    2.0392156862745064e-02 -4.9999999999999911e+00
    2.0392156862745064e-02 -4.9999999999999911e+00
    2.0392156862745064e-02 -4.9999999999999911e+00
    2.0392156862745064e-02 -4.9999999999999911e+00 1. -255. 1. -255. 1.
    -255. 1.4716771567578705e-02 -3.4641016151377566e+00
    2.0392156862745064e-02 -4.9999999999999911e+00
    1.2274636000901954e-02 -2.7688746209726909e+00
    1.0869056127933081e-02 -2.3452078799117149e+00
    1.0869056127933081e-02 -2.3452078799117149e+00
    1.2274636000901954e-02 -2.7688746209726909e+00
    9.9503536849654354e-03 -2.0493901531919194e+00
    9.9503536849654354e-03 -2.0493901531919194e+00
    8.8411212578929851e-03 -1.6475089420958273e+00
    8.4967320261437902e-03 -1.5000000000000000e+00
    8.2430408509080472e-03 -1.3743685418725533e+00
    8.2430408509080472e-03 -1.3743685418725533e+00
    8.2430408509080472e-03 -1.3743685418725533e+00
    8.2430408509080472e-03 -1.3743685418725533e+00
    7.9376362934116072e-03 -1.1677484162422844e+00
    7.8431372549019607e-03 -1. 9.3077035915910579e-03
    -5.4772255750516607e-01 7.8664452921850779e-03
    -9.2582009977255153e-01 7.8664452921850779e-03
    -1.0801234497346435e+00 8.0607077612135161e-03
    -1.2649110640673518e+00 8.0607077612135161e-03
    -1.2649110640673518e+00 8.2430408509080472e-03
    -1.3743685418725533e+00 8.2430408509080472e-03
    -1.3743685418725533e+00 8.2430408509080472e-03
    -1.3743685418725533e+00 9.3077035915910614e-03
    -1.8257418583505545e+00 9.9503536849654354e-03
    -2.0493901531919194e+00 9.9503536849654354e-03
    -2.0493901531919194e+00 1.2274636000901954e-02
    -2.7688746209726909e+00 1.4716771567578705e-02
    -3.4641016151377566e+00 1.2274636000901954e-02
    -2.7688746209726909e+00 1.2274636000901954e-02
    -2.7688746209726909e+00 1.4716771567578705e-02
    -3.4641016151377566e+00 1. -255. 2.0392156862745064e-02
    -4.9999999999999911e+00 2.0392156862745064e-02
    -4.9999999999999911e+00 2.0392156862745064e-02
    -4.9999999999999911e+00 2.0392156862745064e-02
    -4.9999999999999911e+00 2.0392156862745064e-02
    -4.9999999999999911e+00 1. -255. 1. -255. 1. -255.
    2.0392156862745064e-02 -4.9999999999999911e+00
    1.2274636000901954e-02 -2.7688746209726909e+00
    1.2274636000901954e-02 -2.7688746209726909e+00
    1.2274636000901954e-02 -2.7688746209726909e+00
    1.2274636000901954e-02 -2.7688746209726909e+00
    9.9503536849654354e-03 -2.0493901531919194e+00
    9.9503536849654354e-03 -2.0493901531919194e+00
    8.8411212578929851e-03 -1.6475089420958273e+00
    8.4967320261437902e-03 -1.5000000000000000e+00
    8.4967320261437902e-03 -1.5000000000000000e+00
    8.4967320261437902e-03 -1.5000000000000000e+00
    8.2430408509080472e-03 -1.3743685418725533e+00
    8.4967320261437902e-03 -1.5000000000000000e+00
    7.9376362934116072e-03 -1.1677484162422844e+00
    7.9376362934116072e-03 -8.5634883857767530e-01
    1.4716771567578694e-02 -2.8867513459481287e-01
    7.8431372549019607e-03 -1. 7.8431372549019607e-03 -1.
    7.9376362934116072e-03 -1.1677484162422844e+00
    8.0607077612135161e-03 -1.2649110640673518e+00
    8.4967320261437902e-03 -1.5000000000000000e+00
    8.4967320261437902e-03 -1.5000000000000000e+00
    8.4967320261437902e-03 -1.5000000000000000e+00
    9.3077035915910614e-03 -1.8257418583505545e+00
    9.9503536849654354e-03 -2.0493901531919194e+00
    1.0869056127933081e-02 -2.3452078799117149e+00
    1.4716771567578705e-02 -3.4641016151377566e+00
    1.4716771567578705e-02 -3.4641016151377566e+00
    1.2274636000901954e-02 -2.7688746209726909e+00
    1.0869056127933081e-02 -2.3452078799117149e+00
    1.0869056127933081e-02 -2.3452078799117149e+00
    1.2274636000901954e-02 -2.7688746209726909e+00
    1.2274636000901954e-02 -2.7688746209726909e+00
    1.2274636000901954e-02 -2.7688746209726909e+00
    2.0392156862745064e-02 -4.9999999999999911e+00
    2.0392156862745064e-02 -4.9999999999999911e+00
    1.4716771567578705e-02 -3.4641016151377566e+00
    2.0392156862745064e-02 -4.9999999999999911e+00 1. -255.
    1.4716771567578705e-02 -3.4641016151377566e+00
    1.2274636000901954e-02 -2.7688746209726909e+00
    1.2274636000901954e-02 -2.7688746209726909e+00
    1.2274636000901954e-02 -2.7688746209726909e+00
    1.0869056127933081e-02 -2.3452078799117149e+00
    1.2274636000901954e-02 -2.7688746209726909e+00
    1.0869056127933081e-02 -2.3452078799117149e+00
    9.3077035915910614e-03 -1.8257418583505545e+00
    8.2430408509080472e-03 -1.3743685418725533e+00
    8.4967320261437902e-03 -1.5000000000000000e+00
    8.2430408509080472e-03 -1.3743685418725533e+00
    8.2430408509080472e-03 -1.3743685418725533e+00
    8.4967320261437902e-03 -1.5000000000000000e+00
    8.2430408509080472e-03 -1.3743685418725533e+00
    7.8664452921850779e-03 -1.0801234497346435e+00
    7.8431372549019607e-03 -1. 1.0869056127933079e-02
    -4.2640143271122083e-01 7.9376362934116072e-03
    -8.5634883857767530e-01 7.8431372549019607e-03 -1.
    7.9376362934116072e-03 -1.1677484162422844e+00
    8.0607077612135161e-03 -1.2649110640673518e+00
    8.0607077612135161e-03 -1.2649110640673518e+00
    8.4967320261437902e-03 -1.5000000000000000e+00
    8.4967320261437902e-03 -1.5000000000000000e+00
    8.8411212578929851e-03 -1.6475089420958273e+00
    9.9503536849654354e-03 -2.0493901531919194e+00
    1.2274636000901954e-02 -2.7688746209726909e+00
    1.4716771567578705e-02 -3.4641016151377566e+00
    1.0869056127933081e-02 -2.3452078799117149e+00
    9.9503536849654354e-03 -2.0493901531919194e+00
    9.9503536849654354e-03 -2.0493901531919194e+00
    9.9503536849654354e-03 -2.0493901531919194e+00
    9.9503536849654354e-03 -2.0493901531919194e+00
    1.2274636000901954e-02 -2.7688746209726909e+00
    1.0869056127933081e-02 -2.3452078799117149e+00
    1.2274636000901954e-02 -2.7688746209726909e+00
    2.0392156862745064e-02 -4.9999999999999911e+00
    1.4716771567578705e-02 -3.4641016151377566e+00
    2.0392156862745064e-02 -4.9999999999999911e+00
    2.0392156862745064e-02 -4.9999999999999911e+00
    1.2274636000901954e-02 -2.7688746209726909e+00
    1.2274636000901954e-02 -2.7688746209726909e+00
    1.0869056127933081e-02 -2.3452078799117149e+00
    1.0869056127933081e-02 -2.3452078799117149e+00
    1.0869056127933081e-02 -2.3452078799117149e+00
    1.0869056127933081e-02 -2.3452078799117149e+00
    9.9503536849654354e-03 -2.0493901531919194e+00
    8.8411212578929851e-03 -1.6475089420958273e+00
    8.2430408509080472e-03 -1.3743685418725533e+00
    8.2430408509080472e-03 -1.3743685418725533e+00
    8.4967320261437902e-03 -1.5000000000000000e+00
    8.8411212578929851e-03 -1.6475089420958273e+00
    8.2430408509080472e-03 -1.3743685418725533e+00
    8.0607077612135161e-03 -1.2649110640673518e+00
    7.8431372549019607e-03 -1. 7.9376362934116072e-03
    -8.5634883857767530e-01 2.0392156862745096e-02
    -1.9999999999999998e-01 8.0607077612135179e-03
    -7.9056941504209499e-01 7.8431372549019607e-03 -1.
    7.8664452921850779e-03 -1.0801234497346435e+00
    8.0607077612135161e-03 -1.2649110640673518e+00
    8.0607077612135161e-03 -1.2649110640673518e+00
    8.2430408509080472e-03 -1.3743685418725533e+00
    8.2430408509080472e-03 -1.3743685418725533e+00
    8.8411212578929851e-03 -1.6475089420958273e+00
    1.0869056127933081e-02 -2.3452078799117149e+00
    1.2274636000901954e-02 -2.7688746209726909e+00
    1.4716771567578705e-02 -3.4641016151377566e+00
    9.9503536849654354e-03 -2.0493901531919194e+00
    9.9503536849654354e-03 -2.0493901531919194e+00
    1.0869056127933081e-02 -2.3452078799117149e+00
    1.0869056127933081e-02 -2.3452078799117149e+00
    1.2274636000901954e-02 -2.7688746209726909e+00
    1.2274636000901954e-02 -2.7688746209726909e+00
    1.2274636000901954e-02 -2.7688746209726909e+00
    1.0869056127933081e-02 -2.3452078799117149e+00
    1.2274636000901954e-02 -2.7688746209726909e+00
    2.0392156862745064e-02 -4.9999999999999911e+00
    2.0392156862745064e-02 -4.9999999999999911e+00
    1.4716771567578705e-02 -3.4641016151377566e+00
    1.2274636000901954e-02 -2.7688746209726909e+00
    1.2274636000901954e-02 -2.7688746209726909e+00
    1.0869056127933081e-02 -2.3452078799117149e+00
    1.0869056127933081e-02 -2.3452078799117149e+00
    1.0869056127933081e-02 -2.3452078799117149e+00
    1.0869056127933081e-02 -2.3452078799117149e+00
    9.9503536849654354e-03 -2.0493901531919194e+00
    9.3077035915910614e-03 -1.8257418583505545e+00
    8.8411212578929851e-03 -1.6475089420958273e+00
    8.4967320261437902e-03 -1.5000000000000000e+00
    8.4967320261437902e-03 -1.5000000000000000e+00
    8.2430408509080472e-03 -1.3743685418725533e+00
    8.2430408509080472e-03 -1.3743685418725533e+00
    8.2430408509080472e-03 -1.3743685418725533e+00
    7.8664452921850779e-03 -9.2582009977255153e-01
    8.2430408509080490e-03 -7.2760687510899902e-01
    2.0392156862745096e-02 -1.9999999999999998e-01
    8.8411212578929886e-03 -6.0697697866688405e-01
    7.8664452921850779e-03 -9.2582009977255153e-01
    7.8431372549019607e-03 -1. 7.9376362934116072e-03
    -1.1677484162422844e+00 8.0607077612135161e-03
    -1.2649110640673518e+00 7.9376362934116072e-03
    -1.1677484162422844e+00 8.4967320261437902e-03
    -1.5000000000000000e+00 8.8411212578929851e-03
    -1.6475089420958273e+00 9.9503536849654354e-03
    -2.0493901531919194e+00 1.0869056127933081e-02
    -2.3452078799117149e+00 9.9503536849654354e-03
    -2.0493901531919194e+00 9.9503536849654354e-03
    -2.0493901531919194e+00 9.9503536849654354e-03
    -2.0493901531919194e+00 9.9503536849654354e-03
    -2.0493901531919194e+00 1.0869056127933081e-02
    -2.3452078799117149e+00 1.2274636000901954e-02
    -2.7688746209726909e+00 1.2274636000901954e-02
    -2.7688746209726909e+00 1.0869056127933081e-02
    -2.3452078799117149e+00 1.0869056127933081e-02
    -2.3452078799117149e+00 1.4716771567578705e-02
    -3.4641016151377566e+00 1.0869056127933081e-02
    -2.3452078799117149e+00 2.0392156862745064e-02
    -4.9999999999999911e+00 1.2274636000901954e-02
    -2.7688746209726909e+00 1.2274636000901954e-02
    -2.7688746209726909e+00 1.2274636000901954e-02
    -2.7688746209726909e+00 1.2274636000901954e-02
    -2.7688746209726909e+00 1.0869056127933081e-02
    -2.3452078799117149e+00 9.9503536849654354e-03
    -2.0493901531919194e+00 1.0869056127933081e-02
    -2.3452078799117149e+00 1.0869056127933081e-02
    -2.3452078799117149e+00 9.9503536849654354e-03
    -2.0493901531919194e+00 8.8411212578929851e-03
    -1.6475089420958273e+00 8.8411212578929851e-03
    -1.6475089420958273e+00 8.0607077612135161e-03
    -1.2649110640673518e+00 8.2430408509080472e-03
    -1.3743685418725533e+00 8.2430408509080472e-03
    -1.3743685418725533e+00 7.8664452921850779e-03
    -1.0801234497346435e+00 7.8431372549019607e-03 -1.
    9.9503536849654371e-03 -4.8795003647426666e-01
    1.4716771567578694e-02 -2.8867513459481287e-01
    1.0869056127933079e-02 -4.2640143271122083e-01
    8.0607077612135179e-03 -7.9056941504209499e-01
    7.8431372549019607e-03 -1. 7.8664452921850779e-03
    -1.0801234497346435e+00 8.0607077612135161e-03
    -1.2649110640673518e+00 8.2430408509080472e-03
    -1.3743685418725533e+00 8.2430408509080472e-03
    -1.3743685418725533e+00 8.4967320261437902e-03
    -1.5000000000000000e+00 9.9503536849654354e-03
    -2.0493901531919194e+00 9.3077035915910614e-03
    -1.8257418583505545e+00 9.9503536849654354e-03
    -2.0493901531919194e+00 9.9503536849654354e-03
    -2.0493901531919194e+00 9.9503536849654354e-03
    -2.0493901531919194e+00 9.9503536849654354e-03
    -2.0493901531919194e+00 1.0869056127933081e-02
    -2.3452078799117149e+00 1.0869056127933081e-02
    -2.3452078799117149e+00 1.2274636000901954e-02
    -2.7688746209726909e+00 1.0869056127933081e-02
    -2.3452078799117149e+00 1.0869056127933081e-02
    -2.3452078799117149e+00 1.0869056127933081e-02
    -2.3452078799117149e+00 9.9503536849654354e-03
    -2.0493901531919194e+00 1.2274636000901954e-02
    -2.7688746209726909e+00 1.4716771567578705e-02
    -3.4641016151377566e+00 1.4716771567578705e-02
    -3.4641016151377566e+00 1.4716771567578705e-02
    -3.4641016151377566e+00 1.2274636000901954e-02
    -2.7688746209726909e+00 1.0869056127933081e-02
    -2.3452078799117149e+00 1.0869056127933081e-02
    -2.3452078799117149e+00 1.0869056127933081e-02
    -2.3452078799117149e+00 1.0869056127933081e-02
    -2.3452078799117149e+00 9.9503536849654354e-03
    -2.0493901531919194e+00 8.8411212578929851e-03
    -1.6475089420958273e+00 8.2430408509080472e-03
    -1.3743685418725533e+00 8.0607077612135161e-03
    -1.2649110640673518e+00 8.0607077612135161e-03
    -1.2649110640673518e+00 7.9376362934116072e-03
    -1.1677484162422844e+00 7.8664452921850779e-03
    -1.0801234497346435e+00 7.9376362934116072e-03
    -8.5634883857767530e-01 9.9503536849654371e-03
    -4.8795003647426666e-01 2.0392156862745096e-02
    -1.9999999999999998e-01 1.2274636000901959e-02
    -3.6115755925730764e-01 8.0607077612135179e-03
    -7.9056941504209499e-01 7.8664452921850779e-03
    -9.2582009977255153e-01 7.9376362934116072e-03
    -1.1677484162422844e+00 8.0607077612135161e-03
    -1.2649110640673518e+00 8.2430408509080472e-03
    -1.3743685418725533e+00 8.2430408509080472e-03
    -1.3743685418725533e+00 8.2430408509080472e-03
    -1.3743685418725533e+00 8.0607077612135161e-03
    -1.2649110640673518e+00 8.4967320261437902e-03
    -1.5000000000000000e+00 9.3077035915910614e-03
    -1.8257418583505545e+00 9.9503536849654354e-03
    -2.0493901531919194e+00 1.0869056127933081e-02
    -2.3452078799117149e+00 1.0869056127933081e-02
    -2.3452078799117149e+00 9.9503536849654354e-03
    -2.0493901531919194e+00 1.0869056127933081e-02
    -2.3452078799117149e+00 1.2274636000901954e-02
    -2.7688746209726909e+00 1.0869056127933081e-02
    -2.3452078799117149e+00 1.0869056127933081e-02
    -2.3452078799117149e+00 9.3077035915910614e-03
    -1.8257418583505545e+00 1.0869056127933081e-02
    -2.3452078799117149e+00 1.0869056127933081e-02
    -2.3452078799117149e+00 1.2274636000901954e-02
    -2.7688746209726909e+00 1.2274636000901954e-02
    -2.7688746209726909e+00 1.4716771567578705e-02
    -3.4641016151377566e+00 1.4716771567578705e-02
    -3.4641016151377566e+00 1.0869056127933081e-02
    -2.3452078799117149e+00 1.2274636000901954e-02
    -2.7688746209726909e+00 9.9503536849654354e-03
    -2.0493901531919194e+00 9.9503536849654354e-03
    -2.0493901531919194e+00 8.8411212578929851e-03
    -1.6475089420958273e+00 8.0607077612135161e-03
    -1.2649110640673518e+00 8.0607077612135161e-03
    -1.2649110640673518e+00 8.0607077612135161e-03
    -1.2649110640673518e+00 8.0607077612135161e-03
    -1.2649110640673518e+00 7.8664452921850779e-03
    -1.0801234497346435e+00 7.8431372549019607e-03 -1.
    8.0607077612135179e-03 -7.9056941504209499e-01
    9.9503536849654371e-03 -4.8795003647426666e-01
    1.4716771567578694e-02 -2.8867513459481287e-01
    1.4716771567578694e-02 -2.8867513459481287e-01
    9.9503536849654371e-03 -4.8795003647426666e-01
    8.0607077612135179e-03 -7.9056941504209499e-01
    7.8431372549019607e-03 -1. 7.9376362934116072e-03
    -1.1677484162422844e+00 8.0607077612135161e-03
    -1.2649110640673518e+00 8.0607077612135161e-03
    -1.2649110640673518e+00 7.9376362934116072e-03
    -1.1677484162422844e+00 8.0607077612135161e-03
    -1.2649110640673518e+00 8.2430408509080472e-03
    -1.3743685418725533e+00 8.8411212578929851e-03
    -1.6475089420958273e+00 8.8411212578929851e-03
    -1.6475089420958273e+00 9.9503536849654354e-03
    -2.0493901531919194e+00 9.9503536849654354e-03
    -2.0493901531919194e+00 9.9503536849654354e-03
    -2.0493901531919194e+00 1.0869056127933081e-02
    -2.3452078799117149e+00 1.0869056127933081e-02
    -2.3452078799117149e+00 1.0869056127933081e-02
    -2.3452078799117149e+00 9.3077035915910614e-03
    -1.8257418583505545e+00 9.3077035915910614e-03
    -1.8257418583505545e+00 8.8411212578929851e-03
    -1.6475089420958273e+00 9.9503536849654354e-03
    -2.0493901531919194e+00 9.9503536849654354e-03
    -2.0493901531919194e+00 1.0869056127933081e-02
    -2.3452078799117149e+00 1.2274636000901954e-02
    -2.7688746209726909e+00 1.2274636000901954e-02
    -2.7688746209726909e+00 1.2274636000901954e-02
    -2.7688746209726909e+00 9.9503536849654354e-03
    -2.0493901531919194e+00 9.3077035915910614e-03
    -1.8257418583505545e+00 9.3077035915910614e-03
    -1.8257418583505545e+00 8.0607077612135161e-03
    -1.2649110640673518e+00 7.9376362934116072e-03
    -1.1677484162422844e+00 7.9376362934116072e-03
    -1.1677484162422844e+00 7.9376362934116072e-03
    -1.1677484162422844e+00 7.8664452921850779e-03
    -1.0801234497346435e+00 7.8664452921850779e-03
    -9.2582009977255153e-01 7.9376362934116072e-03
    -8.5634883857767530e-01 1.0869056127933079e-02
    -4.2640143271122083e-01 1.0869056127933079e-02
    -4.2640143271122083e-01 1.4716771567578694e-02
    -2.8867513459481287e-01 1.4716771567578694e-02
    -2.8867513459481287e-01 1.2274636000901959e-02
    -3.6115755925730764e-01 8.2430408509080490e-03
    -7.2760687510899902e-01 7.8431372549019607e-03 -1.
    7.8664452921850779e-03 -1.0801234497346435e+00
    8.0607077612135161e-03 -1.2649110640673518e+00
    7.9376362934116072e-03 -1.1677484162422844e+00
    7.9376362934116072e-03 -1.1677484162422844e+00
    7.9376362934116072e-03 -1.1677484162422844e+00
    8.0607077612135161e-03 -1.2649110640673518e+00
    8.4967320261437902e-03 -1.5000000000000000e+00
    8.8411212578929851e-03 -1.6475089420958273e+00
    8.8411212578929851e-03 -1.6475089420958273e+00
    8.8411212578929851e-03 -1.6475089420958273e+00
    9.3077035915910614e-03 -1.8257418583505545e+00
    9.9503536849654354e-03 -2.0493901531919194e+00
    1.0869056127933081e-02 -2.3452078799117149e+00
    9.9503536849654354e-03 -2.0493901531919194e+00
    9.3077035915910614e-03 -1.8257418583505545e+00
    8.4967320261437902e-03 -1.5000000000000000e+00
    9.3077035915910614e-03 -1.8257418583505545e+00
    9.3077035915910614e-03 -1.8257418583505545e+00
    9.9503536849654354e-03 -2.0493901531919194e+00
    1.0869056127933081e-02 -2.3452078799117149e+00
    1.0869056127933081e-02 -2.3452078799117149e+00
    1.2274636000901954e-02 -2.7688746209726909e+00
    1.2274636000901954e-02 -2.7688746209726909e+00
    1.0869056127933081e-02 -2.3452078799117149e+00
    8.4967320261437902e-03 -1.5000000000000000e+00
    8.4967320261437902e-03 -1.5000000000000000e+00
    7.9376362934116072e-03 -1.1677484162422844e+00
    7.8664452921850779e-03 -1.0801234497346435e+00
    7.9376362934116072e-03 -1.1677484162422844e+00
    7.8664452921850779e-03 -1.0801234497346435e+00
    7.8431372549019607e-03 -1. 7.9376362934116072e-03
    -8.5634883857767530e-01 9.3077035915910579e-03
    -5.4772255750516607e-01 1.0869056127933079e-02
    -4.2640143271122083e-01 1.2274636000901959e-02
    -3.6115755925730764e-01 1. 0. 1.4716771567578694e-02
    -2.8867513459481287e-01 1.2274636000901959e-02
    -3.6115755925730764e-01 1.2274636000901959e-02
    -3.6115755925730764e-01 8.2430408509080490e-03
    -7.2760687510899902e-01 7.8664452921850779e-03
    -9.2582009977255153e-01 7.8664452921850779e-03
    -9.2582009977255153e-01 7.8431372549019607e-03 -1.
    7.8664452921850779e-03 -1.0801234497346435e+00
    7.8664452921850779e-03 -1.0801234497346435e+00
    7.8431372549019607e-03 -1. 7.9376362934116072e-03
    -1.1677484162422844e+00 8.0607077612135161e-03
    -1.2649110640673518e+00 8.4967320261437902e-03
    -1.5000000000000000e+00 8.2430408509080472e-03
    -1.3743685418725533e+00 8.4967320261437902e-03
    -1.5000000000000000e+00 8.4967320261437902e-03
    -1.5000000000000000e+00 8.4967320261437902e-03
    -1.5000000000000000e+00 8.4967320261437902e-03
    -1.5000000000000000e+00 8.0607077612135161e-03
    -1.2649110640673518e+00 8.0607077612135161e-03
    -1.2649110640673518e+00 8.2430408509080472e-03
    -1.3743685418725533e+00 8.2430408509080472e-03
    -1.3743685418725533e+00 8.2430408509080472e-03
    -1.3743685418725533e+00 8.4967320261437902e-03
    -1.5000000000000000e+00 8.4967320261437902e-03
    -1.5000000000000000e+00 8.8411212578929851e-03
    -1.6475089420958273e+00 8.8411212578929851e-03
    -1.6475089420958273e+00 8.8411212578929851e-03
    -1.6475089420958273e+00 8.4967320261437902e-03
    -1.5000000000000000e+00 7.9376362934116072e-03
    -1.1677484162422844e+00 7.8664452921850779e-03
    -1.0801234497346435e+00 7.8664452921850779e-03
    -9.2582009977255153e-01 7.8431372549019607e-03 -1.
    7.8664452921850779e-03 -9.2582009977255153e-01
    7.9376362934116072e-03 -8.5634883857767530e-01
    8.8411212578929886e-03 -6.0697697866688405e-01
    1.2274636000901959e-02 -3.6115755925730764e-01
    1.2274636000901959e-02 -3.6115755925730764e-01
    2.0392156862745096e-02 -1.9999999999999998e-01
    1.4716771567578694e-02 -2.8867513459481287e-01
    1.4716771567578694e-02 -2.8867513459481287e-01
    1.4716771567578694e-02 -2.8867513459481287e-01
    1.2274636000901959e-02 -3.6115755925730764e-01
    1.0869056127933079e-02 -4.2640143271122083e-01
    7.9376362934116072e-03 -8.5634883857767530e-01
    7.9376362934116072e-03 -8.5634883857767530e-01
    7.8664452921850779e-03 -9.2582009977255153e-01
    7.8431372549019607e-03 -1. 7.8664452921850779e-03
    -1.0801234497346435e+00 7.8664452921850779e-03
    -1.0801234497346435e+00 7.9376362934116072e-03
    -1.1677484162422844e+00 7.9376362934116072e-03
    -1.1677484162422844e+00 8.4967320261437902e-03
    -1.5000000000000000e+00 8.2430408509080472e-03
    -1.3743685418725533e+00 8.4967320261437902e-03
    -1.5000000000000000e+00 8.4967320261437902e-03
    -1.5000000000000000e+00 8.4967320261437902e-03
    -1.5000000000000000e+00 8.2430408509080472e-03
    -1.3743685418725533e+00 8.0607077612135161e-03
    -1.2649110640673518e+00 8.0607077612135161e-03
    -1.2649110640673518e+00 8.0607077612135161e-03
    -1.2649110640673518e+00 8.0607077612135161e-03
    -1.2649110640673518e+00 8.0607077612135161e-03
    -1.2649110640673518e+00 8.0607077612135161e-03
    -1.2649110640673518e+00 8.2430408509080472e-03
    -1.3743685418725533e+00 8.0607077612135161e-03
    -1.2649110640673518e+00 8.2430408509080472e-03
    -1.3743685418725533e+00 8.2430408509080472e-03
    -1.3743685418725533e+00 8.2430408509080472e-03
    -1.3743685418725533e+00 8.0607077612135161e-03
    -1.2649110640673518e+00 7.9376362934116072e-03
    -1.1677484162422844e+00 7.8431372549019607e-03 -1.
    7.8664452921850779e-03 -9.2582009977255153e-01
    7.9376362934116072e-03 -8.5634883857767530e-01
    8.0607077612135179e-03 -7.9056941504209499e-01
    1.2274636000901959e-02 -3.6115755925730764e-01
    1.2274636000901959e-02 -3.6115755925730764e-01
    2.0392156862745096e-02 -1.9999999999999998e-01
    2.0392156862745096e-02 -1.9999999999999998e-01 1. 0.
    1.4716771567578694e-02 -2.8867513459481287e-01
    1.4716771567578694e-02 -2.8867513459481287e-01
    1.4716771567578694e-02 -2.8867513459481287e-01
    1.2274636000901959e-02 -3.6115755925730764e-01
    1.0869056127933079e-02 -4.2640143271122083e-01
    8.0607077612135179e-03 -7.9056941504209499e-01
    7.9376362934116072e-03 -8.5634883857767530e-01
    7.8664452921850779e-03 -9.2582009977255153e-01
    7.8431372549019607e-03 -1. 7.8664452921850779e-03
    -1.0801234497346435e+00 7.8664452921850779e-03
    -1.0801234497346435e+00 7.9376362934116072e-03
    -1.1677484162422844e+00 8.0607077612135161e-03
    -1.2649110640673518e+00 8.0607077612135161e-03
    -1.2649110640673518e+00 8.0607077612135161e-03
    -1.2649110640673518e+00 8.0607077612135161e-03
    -1.2649110640673518e+00 8.0607077612135161e-03
    -1.2649110640673518e+00 8.2430408509080472e-03
    -1.3743685418725533e+00 8.0607077612135161e-03
    -1.2649110640673518e+00 8.0607077612135161e-03
    -1.2649110640673518e+00 8.0607077612135161e-03
    -1.2649110640673518e+00 8.0607077612135161e-03
    -1.2649110640673518e+00 8.0607077612135161e-03
    -1.2649110640673518e+00 8.0607077612135161e-03
    -1.2649110640673518e+00 7.9376362934116072e-03
    -1.1677484162422844e+00 7.9376362934116072e-03
    -1.1677484162422844e+00 7.9376362934116072e-03
    -1.1677484162422844e+00 8.0607077612135161e-03
    -1.2649110640673518e+00 8.2430408509080472e-03
    -1.3743685418725533e+00 8.2430408509080472e-03
    -1.3743685418725533e+00 8.0607077612135161e-03
    -1.2649110640673518e+00 7.9376362934116072e-03
    -8.5634883857767530e-01 8.0607077612135179e-03
    -7.9056941504209499e-01 8.0607077612135179e-03
    -7.9056941504209499e-01 1.0869056127933079e-02
    -4.2640143271122083e-01 1.2274636000901959e-02
    -3.6115755925730764e-01 1.2274636000901959e-02
    -3.6115755925730764e-01 1.4716771567578694e-02
    -2.8867513459481287e-01 2.0392156862745096e-02
    -1.9999999999999998e-01 1. 0. 1. 0. 1.4716771567578694e-02
    -2.8867513459481287e-01 1.4716771567578694e-02
    -2.8867513459481287e-01 1.4716771567578694e-02
    -2.8867513459481287e-01 1.2274636000901959e-02
    -3.6115755925730764e-01 9.3077035915910579e-03
    -5.4772255750516607e-01 8.0607077612135179e-03
    -7.9056941504209499e-01 7.8664452921850779e-03
    -9.2582009977255153e-01 7.8664452921850779e-03
    -9.2582009977255153e-01 7.8664452921850779e-03
    -9.2582009977255153e-01 7.8664452921850779e-03
    -1.0801234497346435e+00 7.9376362934116072e-03
    -1.1677484162422844e+00 8.0607077612135161e-03
    -1.2649110640673518e+00 7.9376362934116072e-03
    -1.1677484162422844e+00 8.0607077612135161e-03
    -1.2649110640673518e+00 8.0607077612135161e-03
    -1.2649110640673518e+00 8.0607077612135161e-03
    -1.2649110640673518e+00 8.0607077612135161e-03
    -1.2649110640673518e+00 8.2430408509080472e-03
    -1.3743685418725533e+00 8.2430408509080472e-03
    -1.3743685418725533e+00 8.0607077612135161e-03
    -1.2649110640673518e+00 8.0607077612135161e-03
    -1.2649110640673518e+00 8.0607077612135161e-03
    -1.2649110640673518e+00 7.9376362934116072e-03
    -1.1677484162422844e+00 7.9376362934116072e-03
    -1.1677484162422844e+00 7.8664452921850779e-03
    -1.0801234497346435e+00 7.9376362934116072e-03
    -1.1677484162422844e+00 8.0607077612135161e-03
    -1.2649110640673518e+00 7.9376362934116072e-03
    -1.1677484162422844e+00 7.9376362934116072e-03
    -1.1677484162422844e+00 7.8664452921850779e-03
    -1.0801234497346435e+00 7.9376362934116072e-03
    -8.5634883857767530e-01 8.0607077612135179e-03
    -7.9056941504209499e-01 1.0869056127933079e-02
    -4.2640143271122083e-01 1.2274636000901959e-02
    -3.6115755925730764e-01 1.4716771567578694e-02
    -2.8867513459481287e-01 1.4716771567578694e-02
    -2.8867513459481287e-01 2.0392156862745096e-02
    -1.9999999999999998e-01 1. 0. 1. 0. 1. 0. 1. 0.
    2.0392156862745096e-02 -1.9999999999999998e-01
    1.4716771567578694e-02 -2.8867513459481287e-01
    1.4716771567578694e-02 -2.8867513459481287e-01
    1.0869056127933079e-02 -4.2640143271122083e-01
    9.3077035915910579e-03 -5.4772255750516607e-01
    8.2430408509080490e-03 -7.2760687510899902e-01
    7.9376362934116072e-03 -8.5634883857767530e-01
    7.9376362934116072e-03 -8.5634883857767530e-01
    7.8431372549019607e-03 -1. 7.8664452921850779e-03
    -1.0801234497346435e+00 7.9376362934116072e-03
    -1.1677484162422844e+00 7.9376362934116072e-03
    -1.1677484162422844e+00 7.9376362934116072e-03
    -1.1677484162422844e+00 8.0607077612135161e-03
    -1.2649110640673518e+00 8.2430408509080472e-03
    -1.3743685418725533e+00 8.2430408509080472e-03
    -1.3743685418725533e+00 8.0607077612135161e-03
    -1.2649110640673518e+00 8.2430408509080472e-03
    -1.3743685418725533e+00 8.2430408509080472e-03
    -1.3743685418725533e+00 8.2430408509080472e-03
    -1.3743685418725533e+00 8.0607077612135161e-03
    -1.2649110640673518e+00 7.8664452921850779e-03
    -1.0801234497346435e+00 7.9376362934116072e-03
    -1.1677484162422844e+00 7.9376362934116072e-03
    -1.1677484162422844e+00 7.9376362934116072e-03
    -1.1677484162422844e+00 7.8431372549019607e-03 -1.
    7.8664452921850779e-03 -9.2582009977255153e-01
    7.8431372549019607e-03 -1. 7.8431372549019607e-03 -1.
    8.2430408509080490e-03 -7.2760687510899902e-01
    1.0869056127933079e-02 -4.2640143271122083e-01
    1.0869056127933079e-02 -4.2640143271122083e-01
    1.4716771567578694e-02 -2.8867513459481287e-01
    1.4716771567578694e-02 -2.8867513459481287e-01
    2.0392156862745096e-02 -1.9999999999999998e-01 1. 0. 1. 0. 1. 0. 1.
    0. 1. 0. 1. 0. 1.4716771567578694e-02 -2.8867513459481287e-01
    1.4716771567578694e-02 -2.8867513459481287e-01
    1.2274636000901959e-02 -3.6115755925730764e-01
    1.0869056127933079e-02 -4.2640143271122083e-01
    1.0869056127933079e-02 -4.2640143271122083e-01
    9.3077035915910579e-03 -5.4772255750516607e-01
    8.0607077612135179e-03 -7.9056941504209499e-01
    7.9376362934116072e-03 -8.5634883857767530e-01
    7.8431372549019607e-03 -1. 7.8431372549019607e-03 -1.
    7.8664452921850779e-03 -1.0801234497346435e+00
    7.8431372549019607e-03 -1. 7.8431372549019607e-03 -1.
    7.9376362934116072e-03 -1.1677484162422844e+00
    7.9376362934116072e-03 -1.1677484162422844e+00
    7.8664452921850779e-03 -1.0801234497346435e+00
    7.9376362934116072e-03 -1.1677484162422844e+00
    7.9376362934116072e-03 -1.1677484162422844e+00
    7.8431372549019607e-03 -1. 7.8664452921850779e-03
    -1.0801234497346435e+00 7.8664452921850779e-03
    -1.0801234497346435e+00 7.8664452921850779e-03
    -1.0801234497346435e+00 7.8664452921850779e-03
    -1.0801234497346435e+00 7.9376362934116072e-03
    -8.5634883857767530e-01 7.9376362934116072e-03
    -8.5634883857767530e-01 7.9376362934116072e-03
    -8.5634883857767530e-01 8.0607077612135179e-03
    -7.9056941504209499e-01 8.8411212578929886e-03
    -6.0697697866688405e-01 1.0869056127933079e-02
    -4.2640143271122083e-01 1.0869056127933079e-02
    -4.2640143271122083e-01 1.4716771567578694e-02
    -2.8867513459481287e-01 1.4716771567578694e-02
    -2.8867513459481287e-01 2.0392156862745096e-02
    -1.9999999999999998e-01 1. 0. 1. 0. 1. 0. 1. 0. 1. 0. 1. 0. 1. 0. 1.
    0. 2.0392156862745096e-02 -1.9999999999999998e-01
    1.4716771567578694e-02 -2.8867513459481287e-01
    1.4716771567578694e-02 -2.8867513459481287e-01
    1.0869056127933079e-02 -4.2640143271122083e-01
    1.0869056127933079e-02 -4.2640143271122083e-01
    9.3077035915910579e-03 -5.4772255750516607e-01
    8.4967320261437902e-03 -6.6666666666666663e-01
    8.0607077612135179e-03 -7.9056941504209499e-01
    7.8664452921850779e-03 -9.2582009977255153e-01
    7.8664452921850779e-03 -9.2582009977255153e-01
    7.8431372549019607e-03 -1. 7.8431372549019607e-03 -1.
    7.8664452921850779e-03 -1.0801234497346435e+00
    7.8664452921850779e-03 -1.0801234497346435e+00
    7.8664452921850779e-03 -1.0801234497346435e+00
    7.8664452921850779e-03 -9.2582009977255153e-01
    7.8431372549019607e-03 -1. 7.8431372549019607e-03 -1.
    7.8431372549019607e-03 -1. 7.8431372549019607e-03 -1.
    7.8664452921850779e-03 -9.2582009977255153e-01
    7.9376362934116072e-03 -8.5634883857767530e-01
    7.9376362934116072e-03 -8.5634883857767530e-01
    8.4967320261437902e-03 -6.6666666666666663e-01
    8.4967320261437902e-03 -6.6666666666666663e-01
    9.9503536849654371e-03 -4.8795003647426666e-01
    1.0869056127933079e-02 -4.2640143271122083e-01
    1.0869056127933079e-02 -4.2640143271122083e-01
    1.2274636000901959e-02 -3.6115755925730764e-01
    1.4716771567578694e-02 -2.8867513459481287e-01
    1.4716771567578694e-02 -2.8867513459481287e-01 1. 0. 1. 0. 1. 0. 1.
    0. 1. 0. 1. 0. 1. 0. 1. 0. 1. 0. 1. 0. 2.0392156862745096e-02
    -1.9999999999999998e-01 1.4716771567578694e-02
    -2.8867513459481287e-01 1.2274636000901959e-02
    -3.6115755925730764e-01 1.2274636000901959e-02
    -3.6115755925730764e-01 1.2274636000901959e-02
    -3.6115755925730764e-01 9.9503536849654371e-03
    -4.8795003647426666e-01 1.0869056127933079e-02
    -4.2640143271122083e-01 1.0869056127933079e-02
    -4.2640143271122083e-01 8.0607077612135179e-03
    -7.9056941504209499e-01 8.0607077612135179e-03
    -7.9056941504209499e-01 8.0607077612135179e-03
    -7.9056941504209499e-01 8.0607077612135179e-03
    -7.9056941504209499e-01 8.0607077612135179e-03
    -7.9056941504209499e-01 8.2430408509080490e-03
    -7.2760687510899902e-01 7.9376362934116072e-03
    -8.5634883857767530e-01 7.9376362934116072e-03
    -8.5634883857767530e-01 8.0607077612135179e-03
    -7.9056941504209499e-01 8.4967320261437902e-03
    -6.6666666666666663e-01 8.2430408509080490e-03
    -7.2760687510899902e-01 8.2430408509080490e-03
    -7.2760687510899902e-01 8.4967320261437902e-03
    -6.6666666666666663e-01 9.9503536849654371e-03
    -4.8795003647426666e-01 9.9503536849654371e-03
    -4.8795003647426666e-01 1.4716771567578694e-02
    -2.8867513459481287e-01 1.4716771567578694e-02
    -2.8867513459481287e-01 1.2274636000901959e-02
    -3.6115755925730764e-01 1.2274636000901959e-02
    -3.6115755925730764e-01 1.2274636000901959e-02
    -3.6115755925730764e-01 1.4716771567578694e-02
    -2.8867513459481287e-01 1. 0. 1. 0. 1. 0. 1. 0. 1. 0.</input_scale>
  <output_scale>
    1.0526315789473684e+00 0.</output_scale>
  <inv_output_scale>
    9.4999999999999996e-01 0.</inv_output_scale>
  <weights>
    <_>
      -1.1719048386403424e-03 -2.2903224389177911e-04
      -9.9637750405231888e-04 -5.5088375721748159e-04
      2.2039270841974236e-04 1.2144499427915077e-03
      9.9728247011042037e-04 2.0453599492093418e-04
      -7.2831549546728146e-04 -4.2920232853557353e-04
      -1.1054717958401724e-03 -1.2409612586460942e-04
      -2.1397120762249158e-05 -7.8018402384446585e-04
      6.7194088742161514e-04 -1.1208781013474275e-03
      1.1037170489498088e-03 1.0083693640301039e-03
      -2.5698247005999147e-04 -3.4383640164285737e-05
      3.0002183913935715e-04 -7.7645728251324352e-04
      -6.5397802009701264e-04 9.5527311481024093e-04
      -1.0954164450422850e-03 -3.1663012947851025e-04
      6.1523554708813478e-04 -6.3403300196013517e-04
      1.0630743572223426e-03 -2.4215284090006096e-04
      1.2150750992007805e-03 -3.7732545206526025e-04
      2.2581237915161135e-04 8.1166924113520002e-04
      1.1322676431532379e-03 5.1786688077618958e-04
      8.1904968067006900e-04 5.2277548999592920e-04
      1.2256443938238879e-03 -1.5902424652943092e-04
      1.0006095051666778e-03 -1.2360065806494723e-04
      -4.9757563455631135e-04 -3.1665114341106415e-04
      -4.9687487376696255e-04 -9.8762003860938287e-04
      -1.0769257782646255e-03 1.9359174674622143e-04
      9.8586789727321479e-04 -7.3920520149686904e-04
      -6.3182507461667333e-04 1.0794726090193596e-03
      4.8214789913359374e-04 2.1184138457599726e-04
      -3.8977060393565811e-04 6.4704591712820038e-04
      2.4452936821907291e-04 4.6472065437268360e-04
      -9.6586410568878041e-04 8.2293464666079782e-04
      2.2430587666467870e-04 8.4825599294464699e-04
      -7.2543137497211696e-05 1.0828974942914031e-03
      3.4743642921141848e-04 -9.1098391826197078e-04
      1.5632775441477826e-04 -7.2524719171971122e-04
      5.5114414791656468e-04 -3.8909677334856576e-04
      2.7751273856124211e-04 3.7614084320229739e-04
      -1.2061696358276470e-03 4.7243463006980127e-04
      8.5200329999364827e-05 -7.4882263126855596e-05
      8.7812126981127471e-04 -4.0478971282841437e-04
      -8.1164896676020747e-04 -5.9889546840852703e-04
      1.0906099374887938e-03 -1.0560490699896210e-05
      -1.0372453125659920e-04 -8.6064993264560788e-04
      3.5919193228786201e-04 1.0929916721984258e-03
      1.8913373616721725e-05 -2.9888719748348607e-04
      -4.8426694349722660e-04 -5.0351636668221451e-04
      -8.9668525312921890e-04 -1.0302480531634468e-03
      4.2486627347626055e-04 -7.0792362748296116e-04
      6.5129636344593469e-04 -1.0372745478373054e-03
      8.5661756484744448e-04 8.6823956786471145e-04
      -9.4041216101263883e-04 6.6652097127643882e-04
      7.1501741133838640e-04 8.3487644317749917e-04
      -7.3971190318808519e-04 8.8933038218103402e-04
      -3.6106061635133668e-04 1.1444187352002799e-03
      -1.2893897388449141e-04 -8.2547018330145704e-04
      1.0776384375908309e-03 -5.0722735901636217e-04
      1.2059494435995750e-03 -6.2875456763105948e-04
      -1.0426101017564574e-03 -1.0207444377494680e-03
      7.5934285524509640e-04 1.1999284042292994e-03
      -1.0236523168718947e-03 1.9829300411200240e-04
      -1.0765903027175699e-03 3.9913617957647752e-04
      -5.6608375907186883e-04 9.8280077323760939e-04
      5.8674145612284837e-04 -2.3404810589499834e-05
      5.1210201631407039e-04 -3.6144653169046793e-04
      1.0328318839991015e-03 -7.3189054801951596e-04
      3.4695438364743398e-04 -4.4022363701253322e-04
      1.6853111414949609e-04 5.4427262316709827e-04
      4.0928371062340927e-04 -5.0198130336476655e-04
      -5.3837339186742325e-04 5.4130025805742177e-04
      7.2451646606574787e-04 7.2928225531841261e-04
      -8.9596085780997226e-04 -1.0633593111381934e-03
      4.7189397411756106e-04 -4.9248951343733988e-04
      9.9480067882329781e-04 -2.5035076196965137e-04
      1.2025051274339787e-03 7.9488783461768411e-05
      -2.3343960668910767e-04 -8.4511454584403696e-04
      1.2165178234286608e-03 4.8608291870555205e-04
      8.1330602239910749e-04 1.0184280383176761e-03
      1.0704245511725459e-03 -7.2497964613305542e-04
      4.9328224232276271e-04 1.8830881034114335e-04
      9.4414942372186774e-04 6.1239348253836216e-04
      8.3569334300787762e-04 -7.7516820246783386e-04
      7.6792128537373156e-04 3.9113966154086634e-04
      1.0223290973327929e-04 -7.4051485516200854e-04
      -1.0613465030639344e-03 1.2195734907036050e-03
      7.8348237475296342e-04 6.2273781643240763e-04
      -6.8533836696241007e-04 -5.6083736816806462e-04
      1.9154761838263633e-04 -5.4979385448701730e-04
      8.3192936768511632e-04 -5.4251001121607728e-04
      -9.5949344330447761e-04 -8.2391837064399703e-04
      9.9710439467748358e-04 2.3306896178115530e-04
      7.2939638117246631e-04 -7.0924623867844069e-04
      -8.1654930446447226e-04 -3.5859610113503105e-04
      -9.0056365953744696e-04 7.2327842410388086e-04
      9.9368987839671113e-04 6.7204190186007920e-04
      -9.6018195820310795e-04 1.1309850430212796e-03
      -1.2108542536666820e-03 -1.2192476459423629e-04
      1.1874979022113809e-03 1.1181620405702841e-03
      -1.1762246172103261e-03 -3.1067637113254138e-04
      -1.0466778412739374e-03 8.7273754851174812e-04
      -1.6315578044241819e-04 9.8650727645104995e-04
      -2.6554248025771376e-04 5.6806831594354706e-04
      1.1936854513403968e-03 -9.7985299091219629e-04
      9.5299997988754779e-04 -1.1058620135187077e-04
      8.2739715686127774e-05 -1.2982753208899678e-04
      2.7265431118780485e-04 1.6522723830615326e-04
      -5.3247321664021130e-04 -3.4666311617651186e-04
      -1.0490767123061790e-03 -9.5807283833550076e-04
      1.0258043785471233e-03 -9.4870741011722861e-04
      6.4008382825744012e-04 -3.6562015021120744e-04
      2.9736090753866085e-04 -1.1645249205592084e-03
      -1.1942211337740234e-03 -8.6104032702435940e-04
      -8.0696502597657363e-04 1.0319883860130696e-03
      5.2700750202510011e-04 8.3612265018103598e-04
      -9.9670973543749576e-04 -2.3272534041554502e-05
      6.4139057102730621e-04 3.7459591871464844e-04
      -7.1691755580176721e-04 1.5291014943650730e-04
      5.4051425519736570e-04 1.0194950219548902e-03
      3.0081275546891325e-04 5.8834438890964340e-04
      1.6306369467748052e-04 7.7891127957786213e-04
      6.1573715273536005e-04 9.7330054844149987e-04
      7.9010807593027301e-04 -8.5758423904020592e-04
      2.1417132932911455e-04 -4.4589068887066364e-04
      1.0531673992642304e-03 7.0344106791488939e-04
      -1.2221909087404568e-03 -5.2110462328643547e-04
      -6.6090793352329108e-04 -1.2487154519535092e-03
      7.8983116539177900e-04 3.6349600499168761e-04
      -3.2422762477708235e-04 4.1901243388493408e-04
      -1.5051485239619305e-04 3.6912922873491875e-04
      5.6773945685285930e-04 9.1961652954561152e-04
      -9.8217938047836096e-04 -1.1970159940137759e-03
      -5.3924562759331861e-04 8.9887411077465434e-04
      -7.0579574587044370e-05 1.1142487605087985e-03
      9.8500512045425633e-04 -4.9897621598470846e-04
      -1.0600403586221406e-03 1.1432539274522358e-03
      1.2253049148512927e-04 1.1305370848161741e-03
      -6.5728282982254285e-04 4.0059460311130991e-04
      9.2982881932916089e-04 6.1660478295609122e-04
      4.1214060191835801e-04 -7.7914438015144359e-04
      8.3075770514120281e-04 1.1795181362592481e-03
      -4.8608309140902954e-04 8.5282263176968077e-04
      -7.5689017161771231e-04 4.8027403922400396e-05
      4.0772759036874194e-04 -4.6343371663136348e-04
      -1.1754081326732825e-03 -5.8776074558593153e-04
      -1.1035781485130803e-03 1.0393442879559069e-03
      9.2847474462864649e-04 8.7719200381428198e-05
      1.1913575355020343e-03 1.0054269022835937e-04
      1.1669726138403044e-03 1.1749618114607111e-03
      -1.0966327674677349e-03 8.9748950716925192e-04
      7.5339654422948161e-04 -8.4335389700268364e-04
      -1.2083424179383251e-03 1.7768227828752472e-04
      -8.2449815704757005e-04 5.3597591412867180e-04
      3.6751369207797856e-04 -5.2179094428158918e-04
      6.2850188883509055e-04 5.9739719318230094e-04
      4.0586548730337238e-05 -1.0767739828352865e-03
      -1.1103604571571129e-03 -6.6534843286577216e-04
      6.4544791569169071e-04 -4.0283631637491260e-05
      -8.0636975642904422e-04 -5.3570582811193366e-04
      7.0260910942869514e-04 -4.0772227051692273e-04
      1.1259865829144567e-04 8.5420735837199284e-04
      8.0691184894229016e-04 -3.7169358946951214e-04
      1.1827157925115568e-03 4.6458360406528642e-04
      -1.0678443093586627e-01 -3.8147245512037999e-02
      -3.1656500914941391e-02 -1.2484757916926298e-02
      2.7028055765822664e-02 -6.7556573709670843e-03
      1.1310859560061972e-02 2.3921470329408990e-02
      3.7659449983754494e-03 -4.9003865771727738e-02
      -1.2269324367578261e-02 -2.4048261737455980e-02
      -1.2277639892689918e-02 1.5962298866680338e-02
      2.4275495523841178e-03 -1.1444528719357040e-02
      4.1639502782886140e-03 -2.1715940955682259e-02
      4.7370393833964144e-02 -4.9538801067688668e-02
      2.3358161982927412e-02 -7.0227417109945027e-03
      -2.7833807909799506e-03 -3.2958971261999155e-02
      -1.1004231771604485e-02 4.8878792994104777e-03
      -4.1093607996507575e-02 4.3829736481115274e-02
      -1.4087237857091421e-02 -9.7913917907214085e-03
      3.3843235044335562e-02 4.0482229288471519e-02
      -5.1730551523823595e-02 -1.3854989973672259e-02
      -1.9324905385452562e-02 -5.7051182324811328e-03
      -3.0295711370055007e-02 -1.6249348116074088e-02
      3.5168627097068771e-02 3.0292549770873936e-02
      3.7352005552683309e-04 -7.9216785643224975e-04
      4.5735486136197723e-04 -6.9156030785048959e-04
      -3.8296215620829834e-04 2.6369489559906249e-04
      -1.2327892210067272e-04 -5.4445116755477902e-04
      -1.1736328915703412e-03 4.8101356643178675e-04
      1.6719124618846644e-04 9.5638603750570399e-04
      -7.9098778333172104e-04 6.9115518188143401e-04
      1.2212955201118506e-03 -8.5916110568997901e-04
      5.3471275473238001e-04 1.1398474865322427e-03
      -3.4947193977220350e-05 8.1121823158411955e-04
      4.5050130443821571e-06 3.6721477247891301e-04
      -1.2144827087108507e-03 -4.8655677123171851e-05
      1.1363885740853200e-03 5.4543291118360968e-04
      -2.2040082782885014e-05 6.3498327426502724e-04
      -6.1081949551003976e-04 2.3331765943376698e-04
      2.3438551184871596e-04 -6.3776585872519641e-04
      -6.0735761181714956e-05 1.1881812765078172e-04
      -1.9249960827784670e-05 -1.1849136417444450e-03
      6.4690445170128576e-04 7.3716294079696374e-04
      -9.0972007357457702e-04 -2.8420634244279538e-04
      -1.0623897376714746e-01 -3.9126329305883077e-02
      -3.1375465250578737e-02 -1.3266817029572973e-02
      2.9070788545081872e-02 -6.8122564598556276e-03
      1.1251557994022249e-02 2.4145510416291472e-02
      4.6977524687252343e-03 -4.8275577752882715e-02
      -1.0500425972652654e-02 -2.5244448565614464e-02
      -1.1283039164986190e-02 1.7995677391178130e-02
      2.6156328934907186e-03 -1.1576527174024472e-02
      3.9778402026683281e-03 -2.2245178426274978e-02
      4.7397173379017728e-02 -5.0320789139276283e-02
      2.2303347136076675e-02 -5.2842147441753201e-03
      -2.8659027453275536e-03 -3.1397679176333099e-02
      -1.0734956580711257e-02 6.1758464675883184e-03
      -4.2414985307619633e-02 4.3679880789522493e-02
      -1.3339927827340069e-02 -1.0609009333934657e-02
      3.4227378393845778e-02 4.0608401596940000e-02
      -5.1766010867883343e-02 -1.4292442401367612e-02
      -1.9647334242626609e-02 -6.7068730060493810e-03
      -3.0483069512657519e-02 -1.4804670739686929e-02
      3.5475325308557897e-02 2.9827024699097683e-02
      3.4656543964759465e-02 -3.9673008501141024e-03
      -1.6603823958320390e-03 7.4211823091412761e-04
      -4.2543103564423847e-04 4.1807971770153722e-04
      -1.4502701336542522e-03 2.2700562132536097e-04
      -8.2325746620133641e-04 -8.6672317183993913e-03
      1.3801220850034885e-03 -1.9804711856028710e-04
      1.9142443619589373e-03 -2.1945480862020439e-03
      -1.5251925481521811e-03 1.7884539474631814e-03
      -1.6569155096913240e-03 1.6919638611406094e-03
      7.8459202064938161e-03 -7.4737469016482403e-03
      -4.4803114316055805e-04 9.9654839422457387e-04
      -8.3840309214114922e-05 -1.8693490707297423e-03
      1.3809729814118288e-03 -1.0327550920375512e-05
      -5.3467733350460117e-03 5.4087328499144533e-03
      1.3026206169038572e-03 9.5829308989908482e-05
      3.8078656067699226e-03 5.6868127443669009e-03
      -9.0873800819027285e-03 2.4296121913704082e-04
      2.1571776546974535e-03 5.9568091835455648e-04
      -1.6349381353256754e-03 -1.6155714672977934e-04
      4.3420003307311451e-03 2.2591859333733772e-03
      3.6172151782463857e-02 -6.0668368244480488e-03
      -2.9929592447316680e-03 2.0078490159555480e-03
      1.5927314750098368e-03 9.4474058814510029e-05
      -8.4489202431546064e-04 -1.9494037835453748e-04
      1.9745086449899526e-04 -8.5386705266761124e-03
      -1.2420798606265279e-04 1.6337898674790461e-03
      2.2876694004864191e-04 -8.2302147725550796e-04
      -6.0807155675564762e-04 1.4954089343564634e-03
      -1.6157435502955901e-03 1.4986224688276451e-03
      6.6512690082191975e-03 -8.8831961638905430e-03
      -4.5795297614122294e-04 -3.0816776234746281e-04
      1.3552515613627946e-03 -2.1487367851737438e-03
      -8.8783796360361166e-05 -9.0824812070507968e-04
      -5.5918465258458063e-03 6.4357305499972142e-03
      3.8221398216701054e-04 5.2365146189961998e-04
      2.6219353470631626e-03 5.0510419651685207e-03
      -8.6252264496796179e-03 7.9306940316550519e-04
      1.0697830727985191e-03 3.3242762378481806e-04
      -3.1761361978974246e-03 6.6530328262126288e-04
      4.5321135423038858e-03 6.8030714330478026e-04
      9.0183845715913077e-02 9.8942397226626753e-03
      1.1106385961605464e-02 5.1613830292212498e-03
      -1.1938923523833118e-02 3.5660569760298851e-03
      -5.3613315196356882e-03 -9.8639441468404681e-03
      -2.3259095956428984e-03 9.9057639469673393e-03
      4.4763848637414212e-03 1.0210480211836435e-02
      5.8881625695950384e-03 -8.4191987317986175e-03
      -7.4555157577873134e-04 3.8919181042058218e-03
      -3.1404239272465888e-03 8.3803730173106234e-03
      -1.1571169176380153e-02 1.0494456447823463e-02
      -1.1582294936827784e-02 3.8629730941188594e-03
      1.7927608145498323e-03 1.1007150312219103e-02
      4.6198993511460959e-03 -2.9129596058655362e-03
      1.1987082878017355e-02 -1.0514701713730002e-02
      5.0159408779703934e-03 4.4858646136788959e-03
      -1.1150218045772103e-02 -1.1255906379739600e-02
      8.4537988943159288e-03 6.3066950204599100e-03
      7.9745719278255245e-03 2.6684301072106040e-03
      9.8345019704778065e-03 6.0451526628951075e-03
      -1.1804443296187073e-02 -1.0471723510362759e-02
      1.1798831592167490e-01 2.2961254501767156e-02
      1.8302092770677725e-02 1.1054282515757689e-02
      -1.9494399698602068e-02 6.7855941089571131e-03
      -9.3761766612765057e-03 -1.7536743324746626e-02
      -3.5232483355595260e-03 2.6601256910780639e-02
      9.5442185174871297e-03 1.8409312755212178e-02
      1.0467219056474011e-02 -1.2060682391982868e-02
      -4.0581695550221206e-03 7.7964070232871968e-03
      -4.5603975573379509e-03 1.5766348609160596e-02
      -2.5331016516725480e-02 2.5715177778716156e-02
      -1.6644082102466005e-02 5.0868613032544257e-03
      4.6063158451671426e-03 2.0055504818264968e-02
      7.8021973563639872e-03 -4.1910437410434100e-03
      2.4140313579532491e-02 -2.4179130038523507e-02
      9.1645005859944933e-03 8.4038722011672458e-03
      -2.0223012235520525e-02 -2.3302485403419709e-02
      2.5636955505689174e-02 1.1313997580059710e-02
      1.4734976819660772e-02 3.9708342964270013e-03
      1.8828712868979258e-02 1.3246625620566346e-02
      -2.2245976017735335e-02 -1.9661951238080701e-02
      1.9512311308442867e-01 3.0710121251955262e-02
      2.6927939870234053e-02 1.6229442281367898e-02
      -2.8203888128822841e-02 1.1050325833540682e-02
      -1.6040926978803449e-02 -2.7942731759814203e-02
      -7.1632707530951264e-03 3.6175119547653942e-02
      1.5277200959100975e-02 2.6449458329976010e-02
      1.6442871337314431e-02 -2.1785220827055588e-02
      -3.9072741104857964e-03 1.2962338640186637e-02
      -6.4670371750374742e-03 2.4174656783107935e-02
      -3.6434562981013031e-02 3.4354482418185686e-02
      -2.6672546283716760e-02 9.7304132013822740e-03
      5.4358125254656744e-03 2.7848271287894182e-02
      1.3064399107529691e-02 -8.2767668762961447e-03
      3.4005823308224527e-02 -3.4001193722581140e-02
      1.7301181860338133e-02 1.3412075356582405e-02
      -2.9413114608244546e-02 -3.3625826719590121e-02
      3.5644987288560533e-02 1.8429724710916924e-02
      2.2525711556501016e-02 7.7868496180759630e-03
      2.7344409229792987e-02 2.0213228012317314e-02
      -3.0965599095259737e-02 -2.7156316620396498e-02
      1.1825412118138380e-01 2.2482556309371855e-02
      1.9788643995295473e-02 1.1417445213589443e-02
      -1.8783139763673656e-02 5.0783922410504714e-03
      -1.0035604328907755e-02 -1.9152730993066219e-02
      -3.8798626468192401e-03 2.6150100001927395e-02
      8.1009201936697237e-03 1.9150815815017340e-02
      1.0032995414823493e-02 -1.2440538626016412e-02
      -3.3950261940926098e-03 8.8380102602206283e-03
      -3.2994216637722939e-03 1.7187463117518148e-02
      -2.5298764846391229e-02 2.6985021659998620e-02
      -1.7288526769763571e-02 4.2484293820860266e-03
      2.9222304546484795e-03 1.9398794253372511e-02
      8.3200488038935663e-03 -5.4670472473005308e-03
      2.4389440680876309e-02 -2.4614705167124756e-02
      9.1741908678555483e-03 9.1999763947313105e-03
      -2.0866246183760456e-02 -2.2584424115889398e-02
      2.5924428137297707e-02 1.0465914457526699e-02
      1.4760198966250819e-02 5.5081614060612533e-03
      1.9337260583015506e-02 1.0818486273226955e-02
      -2.2306048671733011e-02 -1.8853412857705545e-02
      1.1019894531392858e-01 2.0933228425263945e-03
      4.5151943811587193e-03 6.6597789719687224e-03
      -6.8047091088005293e-03 3.7594160990511868e-03
      -6.2668373606522068e-03 -1.0902472847457382e-02
      -4.0206937915056125e-03 -1.3847912748665451e-03
      6.0839054070630262e-03 8.9472893595909982e-03
      7.0194086449847605e-03 -7.4564233533227862e-03
      -2.0797398234906656e-03 5.2759285625540442e-03
      -3.3082252769846498e-03 1.0730082686834810e-02
      1.4394727213323196e-03 -2.4941539332572846e-03
      -9.0095907102049361e-03 5.1880737842373232e-03
      2.3960329852089003e-03 4.9216359126773510e-03
      5.2941800299608679e-03 -2.9839248280332949e-03
      1.3756351576788310e-04 -4.8074433732707270e-04
      7.9357043483530045e-03 5.0677063021247141e-03
      -3.0345447260006035e-03 -2.3525274565048605e-03
      -3.8789322089419574e-03 8.1163177369105704e-03
      1.0081427421646102e-02 5.1060426607526807e-03
      6.1141790289668610e-03 8.3612127954497146e-03
      -2.1902972633526981e-03 -5.0161992372057020e-03
      7.1037300763418340e-02 -8.6567869090312961e-03
      -8.6300486617863874e-03 6.7378772267636625e-04
      4.8488589732734099e-03 -1.2948326415131902e-04
      -3.8167181439657870e-04 1.8420374290677836e-03
      -1.9311486538065522e-03 1.7644973806833640e-03
      1.3949778526524661e-03 -2.4127089634031155e-03
      6.0231553538019999e-04 -5.3001236719681848e-04
      -1.7491750491150204e-03 6.7660922275462529e-04
      -6.5612935566886977e-04 -2.0515326917914549e-04
      -3.5441551867647835e-03 -8.9036412628520185e-05
      1.2120713179902857e-03 1.9483829153140670e-03
      2.5230131329520572e-04 -9.0812909724929496e-03
      -5.7259785836769040e-04 -1.5721918696541711e-03
      -5.4121079130789096e-03 1.5732116105094873e-03
      1.8207432136348598e-04 -7.7351650706706718e-04
      9.6611101282382851e-03 5.4090290522730254e-03
      2.7279845628189492e-05 -1.3600754469255457e-03
      -7.3873559756764513e-04 1.2018217638175761e-03
      -7.3772501652095701e-03 -1.2073195304558447e-04
      8.6604546052884215e-03 5.7142111955584638e-03
      4.0081070818178195e-02 -1.2459475544273206e-02
      -1.0439080453212424e-02 -2.2525065230780930e-03
      7.3550803301945201e-03 1.2722480379758902e-05
      1.5441995688809469e-03 5.7440922625873001e-03
      2.5827234731356537e-04 1.9333541339423116e-03
      -2.5130193709742062e-03 -4.5674282577774124e-03
      -9.1926375335014282e-04 4.1330809485880891e-03
      -7.3877603236997857e-04 -1.3420738302715473e-03
      -9.3804590971597788e-04 -3.5788285861397574e-03
      -5.3250013465879159e-04 -2.9311090185681608e-04
      3.0208180646728220e-03 -1.2256560871504063e-03
      9.0813464047966952e-04 -1.0911257383212490e-02
      -9.5393087837064984e-04 -6.8913189227128339e-04
      -6.8994026706484732e-03 1.4862416476333800e-03
      -2.9711500649055537e-03 -1.3107078600136611e-03
      1.1941616238360958e-02 8.2652378719125178e-03
      1.0059570172713668e-05 -1.6053406412981041e-03
      -3.6287388284878975e-03 -1.2856794215169750e-03
      -1.0221379343671967e-02 -3.3806919964843684e-03
      1.1142859207175893e-02 8.2779806114469355e-03
      -4.3816014173397699e-02 -3.3533714342590580e-02
      -3.0477811773737089e-02 -1.0486497105459078e-02
      2.4279253848518399e-02 -6.7484034498561940e-03
      8.9803302899474045e-03 2.0703083880463040e-02
      3.1322638869722662e-03 -2.6732331846337498e-02
      -9.3104568297198327e-03 -2.1385845103690748e-02
      -9.1700212095828047e-03 1.2974896918628879e-02
      1.3379351530060689e-03 -8.8217886894839271e-03
      2.5987169332829978e-03 -1.6612134244532336e-02
      2.5902107302750992e-02 -2.6280862430508655e-02
      1.9137933613863699e-02 -3.7233218100242451e-03
      -2.6906925698739455e-03 -3.0574266476147090e-02
      -9.1078227444383666e-03 4.8938989657037468e-03
      -3.1781070108513096e-02 2.7553693004639963e-02
      -1.0263721987268715e-02 -8.3909510257500573e-03
      3.3873712844109484e-02 3.1097969726512378e-02
      -2.7155915609525585e-02 -1.2179701152370591e-02
      -1.4689404456294844e-02 -3.0525950646224367e-03
      -2.9089544192432065e-02 -1.3536594543746141e-02
      3.4401034788692726e-02 2.7067607846075238e-02
      3.7647473558548958e-02 -2.2076463856520456e-02
      -2.0190239347006006e-02 -3.2746378164036573e-03
      1.3440078793901850e-02 1.6654464404372270e-04
      1.3855894263149488e-03 8.0380737638146744e-03
      -2.2645003227527074e-03 -1.1715344750516112e-02
      -2.7216458929154694e-03 -8.9374568066327605e-03
      -1.0071884201854036e-03 4.7767260957273542e-03
      -4.0709112481116585e-04 -5.6092184398322893e-04
      -2.0766784792946220e-03 -6.2598039663562454e-03
      1.3067454257820648e-02 -1.4595949724118547e-02
      6.4401796051779363e-03 5.3537187909282282e-04
      1.2806957557753849e-03 -1.9370506632824459e-02
      -1.8931240921785258e-03 -3.1989617912995925e-04
      -1.8168785859208135e-02 1.5021108939071937e-02
      -1.0899238074228109e-03 -1.1937885606117537e-03
      1.9938491766406309e-02 1.8463506450532814e-02
      -1.3338437560520621e-02 -2.5024511627229767e-03
      -4.7883697024690116e-03 1.6812310425806626e-03
      -1.8848481987165336e-02 -2.5594106425375763e-03
      2.2873866095701599e-02 1.6126514540979429e-02
      2.0088225367032218e-02 -2.5504571106297395e-02
      -2.2073776151344388e-02 -2.6144741097091965e-03
      1.5808482778001641e-02 -1.9792944070329455e-03
      3.9175592643273466e-03 1.1115414289379833e-02
      -1.1034500806243275e-03 -1.5071916764764425e-02
      -1.8809246618391811e-03 -1.0530445221692619e-02
      -3.0050475024314088e-03 5.9980672429155923e-03
      4.2018192973907663e-04 -3.3948212451407537e-03
      -1.6354832174684945e-03 -6.8823240237734290e-03
      1.4891545349688661e-02 -1.4485740657788241e-02
      9.2926161365143260e-03 -1.4256664844909909e-03
      -7.2687763532477295e-04 -2.0217413306407146e-02
